{"learner":{"attributes":{"scikit_learn":"{\"_estimator_type\": \"classifier\"}"},"feature_names":[],"feature_types":[],"gradient_booster":{"model":{"gbtree_model_param":{"num_parallel_tree":"1","num_trees":"100"},"iteration_indptr":[0,1,2,3,4,5,6,7,8,9,10,11,12,13,14,15,16,17,18,19,20,21,22,23,24,25,26,27,28,29,30,31,32,33,34,35,36,37,38,39,40,41,42,43,44,45,46,47,48,49,50,51,52,53,54,55,56,57,58,59,60,61,62,63,64,65,66,67,68,69,70,71,72,73,74,75,76,77,78,79,80,81,82,83,84,85,86,87,88,89,90,91,92,93,94,95,96,97,98,99,100],"tree_info":[0,0,0,0,0,0,0,0,0,0,0,0,0,0,0,0,0,0,0,0,0,0,0,0,0,0,0,0,0,0,0,0,0,0,0,0,0,0,0,0,0,0,0,0,0,0,0,0,0,0,0,0,0,0,0,0,0,0,0,0,0,0,0,0,0,0,0,0,0,0,0,0,0,0,0,0,0,0,0,0,0,0,0,0,0,0,0,0,0,0,0,0,0,0,0,0,0,0,0,0],"trees":[{"base_weights":[1.4677766E-3,-7.266163E-1,5.313196E-1,-1.2334405E0,-5.030029E-1,1.7335856E-1,9.6560246E-1,-1.5753222E0,-1.0885661E0,-6.9002473E-1,-3.1391138E-1,3.301805E-1,-1.7244479E-2,8.0954295E-1,1.4564005E0,-1.4759396E0,-1.7769544E0,-1.0221411E0,-1.3368433E0,-4.309541E-1,-7.6564366E-1,-2.726905E-1,-9.4915265E-1,7.251455E-1,2.7074966E-1,3.1162202E-2,-6.3644737E-1,6.0688066E-1,9.074081E-1,1.3331593E0,1.7134113E0,-9.7341634E-2,-7.122016E-2,-1.8443054E-2,-8.961492E-2,-4.9406823E-2,-7.351014E-2,2.1070873E-2,-6.786116E-2,-6.251645E-2,-1.8251939E-2,-3.8774133E-2,3.0836437E-2,3.607362E-2,-1.4571018E-2,-5.4261606E-2,-2.2257667E-2,1.2860054E-2,4.548369E-2,4.7696284E-3,1.875356E-2,1.5096821E-2,-1.3488865E-3,-2.080811E-2,-5.62462E-2,1.07344985E-2,3.2839756E-2,5.1471155E-2,3.9941054E-2,2.6709957E-2,6.782371E-2,8.643278E-2,1.8187666E-2],"categories":[],"categories_nodes":[],"categories_segments":[],"categories_sizes":[],"default_left":[0,0,0,0,0,0,0,0,0,0,0,0,0,0,0,0,0,0,0,0,0,0,0,0,0,0,0,0,0,0,0,0,0,0,0,0,0,0,0,0,0,0,0,0,0,0,0,0,0,0,0,0,0,0,0,0,0,0,0,0,0,0,0],"id":0,"left_children":[1,3,5,7,9,11,13,15,17,19,21,23,25,27,29,31,33,35,37,39,41,43,45,47,49,51,53,55,57,59,61,-1,-1,-1,-1,-1,-1,-1,-1,-1,-1,-1,-1,-1,-1,-1,-1,-1,-1,-1,-1,-1,-1,-1,-1,-1,-1,-1,-1,-1,-1,-1,-1],"loss_changes":[5.1837925E3,6.409597E2,1.2088662E3,8.467163E1,1.387066E2,1.2749182E2,2.6832617E2,8.667969E0,1.9175537E1,3.839099E1,5.0925842E1,5.472177E1,5.7767776E1,5.247766E1,2.5380493E1,6.715271E0,3.0614014E0,1.3711182E1,9.525757E0,2.3778702E1,2.1026794E1,3.4252975E1,7.7495117E0,2.6145126E1,3.7156662E1,2.8143402E1,1.4649033E1,1.688266E1,2.3220825E1,1.015918E1,5.0827637E0,0E0,0E0,0E0,0E0,0E0,0E0,0E0,0E0,0E0,0E0,0E0,0E0,0E0,0E0,0E0,0E0,0E0,0E0,0E0,0E0,0E0,0E0,0E0,0E0,0E0,0E0,0E0,0E0,0E0,0E0,0E0,0E0],"parents":[2147483647,0,0,1,1,2,2,3,3,4,4,5,5,6,6,7,7,8,8,9,9,10,10,11,11,12,12,13,13,14,14,15,15,16,16,17,17,18,18,19,19,20,20,21,21,22,22,23,23,24,24,25,25,26,26,27,27,28,28,29,29,30,30],"right_children":[2,4,6,8,10,12,14,16,18,20,22,24,26,28,30,32,34,36,38,40,42,44,46,48,50,52,54,56,58,60,62,-1,-1,-1,-1,-1,-1,-1,-1,-1,-1,-1,-1,-1,-1,-1,-1,-1,-1,-1,-1,-1,-1,-1,-1,-1,-1,-1,-1,-1,-1,-1,-1],"split_conditions":[-3.0857147E1,-1.9380049E2,1.0486855E2,-3.1802188E2,-9.678465E1,-6E0,2.7157245E2,5E0,5E0,-4.2E0,1.64E2,-1.21E2,1.56E2,5.13E2,3.8661502E2,-5.459359E2,8E0,2.14E2,-3.2E1,-1.29529295E1,1.3506419E1,-1.82E2,8E0,-1.5264745E0,3.0160498E1,-4.3E0,3.79E2,-4.244589E0,-1E-1,-2.7055555E1,2.8829315E0,-9.7341634E-2,-7.122016E-2,-1.8443054E-2,-8.961492E-2,-4.9406823E-2,-7.351014E-2,2.1070873E-2,-6.786116E-2,-6.251645E-2,-1.8251939E-2,-3.8774133E-2,3.0836437E-2,3.607362E-2,-1.4571018E-2,-5.4261606E-2,-2.2257667E-2,1.2860054E-2,4.548369E-2,4.7696284E-3,1.875356E-2,1.5096821E-2,-1.3488865E-3,-2.080811E-2,-5.62462E-2,1.07344985E-2,3.2839756E-2,5.1471155E-2,3.9941054E-2,2.6709957E-2,6.782371E-2,8.643278E-2,1.8187666E-2],"split_indices":[5,5,5,5,5,2,5,3,3,0,2,2,2,1,5,5,2,2,2,27,26,2,16,44,5,0,2,26,0,52,56,0,0,0,0,0,0,0,0,0,0,0,0,0,0,0,0,0,0,0,0,0,0,0,0,0,0,0,0,0,0,0,0],"split_type":[0,0,0,0,0,0,0,0,0,0,0,0,0,0,0,0,0,0,0,0,0,0,0,0,0,0,0,0,0,0,0,0,0,0,0,0,0,0,0,0,0,0,0,0,0,0,0,0,0,0,0,0,0,0,0,0,0,0,0,0,0,0,0],"sum_hessian":[1.3436338E4,5.6593267E3,7.7770117E3,1.7316969E3,3.9276296E3,4.263619E3,3.5133923E3,5.1373425E2,1.2179626E3,1.9736896E3,1.9539402E3,2.3391782E3,1.924441E3,2.6669182E3,8.4647406E2,3.4723935E2,1.664949E2,9.6322046E2,2.547422E2,4.469863E2,1.5267032E3,1.8356937E3,1.18246376E2,3.0499066E2,2.0341876E3,1.7851953E3,1.3924573E2,8.699733E2,1.796945E3,5.744824E2,2.7199167E2,3.2249012E1,3.1499036E2,1.9999387E0,1.6449496E2,8.9697253E2,6.624797E1,2.7499158E0,2.5199228E2,3.2499004E1,4.144873E2,1.5162035E3,1.0499679E1,3.3498974E1,1.8021948E3,9.249717E1,2.574921E1,8.6747345E1,2.1824332E2,7.5947675E2,1.2747109E3,3.1549033E2,1.469705E3,9.674703E1,4.24987E1,9.874697E1,7.712264E2,8.437241E2,9.532208E2,1.6749487E1,5.577329E2,2.6874176E2,3.2499003E0],"tree_param":{"num_deleted":"0","num_feature":"67","num_nodes":"63","size_leaf_vector":"1"}},{"base_weights":[-3.454414E-4,-6.919858E-1,4.67624E-1,-1.1542923E0,-4.5373008E-1,1.05541326E-1,8.555817E-1,-1.4653689E0,-1.0140089E0,-7.0337486E-1,-2.3961736E-1,-1.0855794E-1,3.2435802E-1,6.6660714E-1,1.2010268E0,-1.3729801E0,-1.7081274E0,-1.1299458E0,-8.063011E-1,-1.0713309E0,-5.97409E-1,-3.3038476E-1,7.2363295E-2,-2.417041E-1,2.9260296E-1,2.4601667E-1,6.554741E-1,5.04131E-1,7.875674E-1,1.0844523E0,1.4709088E0,3.2908853E-2,-6.912905E-2,-8.655248E-2,9.463142E-3,-5.3274747E-2,-6.9823064E-2,-4.695881E-2,-2.4689252E-2,-6.0787946E-2,-4.3404E-2,-3.0899463E-2,1.0670668E-2,-2.1646349E-2,-8.08522E-3,-2.7079314E-3,2.6511211E-2,-2.7957086E-2,-7.842047E-3,4.8064496E-3,2.1810962E-2,2.1018207E-3,1.7875789E-2,2.9674465E-2,6.4278886E-2,1.6171867E-2,3.3825807E-2,1.6660139E-2,4.1389562E-2,4.9100112E-2,6.479027E-2,6.802324E-2,8.251271E-2],"categories":[],"categories_nodes":[],"categories_segments":[],"categories_sizes":[],"default_left":[0,0,0,0,0,0,0,0,0,0,0,0,0,0,0,0,0,0,0,0,0,0,0,0,0,0,0,0,0,0,0,0,0,0,0,0,0,0,0,0,0,0,0,0,0,0,0,0,0,0,0,0,0,0,0,0,0,0,0,0,0,0,0],"id":1,"left_children":[1,3,5,7,9,11,13,15,17,19,21,23,25,27,29,31,33,35,37,39,41,43,45,47,49,51,53,55,57,59,61,-1,-1,-1,-1,-1,-1,-1,-1,-1,-1,-1,-1,-1,-1,-1,-1,-1,-1,-1,-1,-1,-1,-1,-1,-1,-1,-1,-1,-1,-1,-1,-1],"loss_changes":[4.343846E3,5.961455E2,1.1242832E3,7.937085E1,1.9091785E2,1.9404166E2,2.5165674E2,1.1325562E1,2.9958008E1,6.3852356E1,5.456286E1,1.11836395E2,5.296295E1,4.878528E1,4.190857E1,8.6484375E0,7.0618286E0,1.2994507E1,1.8616943E1,1.0069946E1,2.1507385E1,2.571022E1,2.5209574E1,4.22343E1,1.4645439E1,3.764927E1,1.4715897E1,3.30643E1,2.5904175E1,1.9831543E1,6.7025146E0,0E0,0E0,0E0,0E0,0E0,0E0,0E0,0E0,0E0,0E0,0E0,0E0,0E0,0E0,0E0,0E0,0E0,0E0,0E0,0E0,0E0,0E0,0E0,0E0,0E0,0E0,0E0,0E0,0E0,0E0,0E0,0E0],"parents":[2147483647,0,0,1,1,2,2,3,3,4,4,5,5,6,6,7,7,8,8,9,9,10,10,11,11,12,12,13,13,14,14,15,15,16,16,17,17,18,18,19,19,20,20,21,21,22,22,23,23,24,24,25,25,26,26,27,27,28,28,29,29,30,30],"right_children":[2,4,6,8,10,12,14,16,18,20,22,24,26,28,30,32,34,36,38,40,42,44,46,48,50,52,54,56,58,60,62,-1,-1,-1,-1,-1,-1,-1,-1,-1,-1,-1,-1,-1,-1,-1,-1,-1,-1,-1,-1,-1,-1,-1,-1,-1,-1,-1,-1,-1,-1,-1,-1],"split_conditions":[-2.9163593E1,-1.6155258E2,3.45E2,-2.7846848E2,-3.65E2,-5.5E1,1.8074721E2,5E0,-1.9339668E0,-4.6861844E0,3.1E2,6.580382E1,1.0660419E2,7.081199E1,3.0892386E2,-2.5E1,-8.8E1,5E0,-4.93E2,-3.8478944E0,1E0,6.7673814E-1,5.131751E0,-7.1E2,1.004268E2,-1.613828E0,2.3497058E2,1.7325048E0,-4.570404E0,7.3293176E0,4.0267715E2,3.2908853E-2,-6.912905E-2,-8.655248E-2,9.463142E-3,-5.3274747E-2,-6.9823064E-2,-4.695881E-2,-2.4689252E-2,-6.0787946E-2,-4.3404E-2,-3.0899463E-2,1.0670668E-2,-2.1646349E-2,-8.08522E-3,-2.7079314E-3,2.6511211E-2,-2.7957086E-2,-7.842047E-3,4.8064496E-3,2.1810962E-2,2.1018207E-3,1.7875789E-2,2.9674465E-2,6.4278886E-2,1.6171867E-2,3.3825807E-2,1.6660139E-2,4.1389562E-2,4.9100112E-2,6.479027E-2,6.802324E-2,8.251271E-2],"split_indices":[13,13,1,13,1,1,13,3,34,32,1,13,13,13,13,16,1,3,1,25,60,33,33,1,13,26,13,33,30,31,13,0,0,0,0,0,0,0,0,0,0,0,0,0,0,0,0,0,0,0,0,0,0,0,0,0,0,0,0,0,0,0,0],"split_type":[0,0,0,0,0,0,0,0,0,0,0,0,0,0,0,0,0,0,0,0,0,0,0,0,0,0,0,0,0,0,0,0,0,0,0,0,0,0,0,0,0,0,0,0,0,0,0,0,0,0,0,0,0,0,0,0,0,0,0,0,0,0,0],"sum_hessian":[1.3419674E4,5.4156025E3,8.004072E3,1.8410074E3,3.574595E3,4.140561E3,3.8635107E3,5.704988E2,1.2705085E3,1.6496155E3,1.9249794E3,2.0927366E3,2.0478246E3,2.4984797E3,1.365031E3,4.1594043E2,1.5455836E2,8.1364966E2,4.5685895E2,3.6761377E2,1.2820017E3,1.4913718E3,4.336075E2,1.5715753E3,5.211612E2,1.656964E3,3.9086053E2,1.0677151E3,1.4307645E3,9.5528076E2,4.0975024E2,1.7489114E0,4.1419153E2,1.5280884E2,1.7495244E0,6.575178E2,1.5613187E2,3.1963458E2,1.3722435E2,2.1316101E2,1.5445276E2,1.2505038E3,3.1497915E1,9.266672E2,5.647047E2,3.3990353E2,9.370399E1,3.306773E2,1.2408981E3,2.2072702E2,3.004342E2,5.861772E2,1.0707869E3,3.5688275E2,3.397781E1,5.2228033E2,5.454348E2,1.1694073E2,1.3138239E3,6.4562213E2,3.0965863E2,2.565888E2,1.5316144E2],"tree_param":{"num_deleted":"0","num_feature":"67","num_nodes":"63","size_leaf_vector":"1"}},{"base_weights":[-8.4204966E-4,-6.271735E-1,4.7278133E-1,-1.080985E0,-4.1473112E-1,1.3238288E-1,8.2639205E-1,-1.371952E0,-9.4609016E-1,-1.3223302E-1,-6.0631996E-1,-3.2438926E-2,3.6135066E-1,6.5087837E-1,1.1445116E0,-1.5030193E0,-1.2411239E0,-9.7560805E-1,-2.853673E-1,-2.6477942E-1,1.5692723E-1,-7.88633E-1,-4.5604655E-1,1.6984716E-1,-2.2332099E-1,3.8746488E-1,-7.280023E-1,7.851748E-1,5.0377667E-1,1.0097111E0,1.4054607E0,-7.557732E-2,2.4362223E-3,4.3287244E-2,-6.2595144E-2,-5.3143557E-2,-4.003285E-2,-4.0991763E-3,-6.516857E-2,-2.0853793E-2,-1.3927127E-4,4.5301337E-3,4.4354245E-2,-4.596215E-2,-3.173634E-2,-2.035933E-2,-4.9751155E-2,-8.844517E-3,1.0930486E-2,-5.7075755E-3,-2.261249E-2,8.53292E-3,2.4929484E-2,-5.0925624E-2,2.1144852E-2,3.0979136E-2,4.5178708E-2,1.5534309E-2,3.4270294E-2,5.805507E-2,4.1007936E-2,6.4356655E-2,8.09305E-2],"categories":[],"categories_nodes":[],"categories_segments":[],"categories_sizes":[],"default_left":[0,0,0,0,0,0,0,0,0,0,0,0,0,0,0,0,0,0,0,0,0,0,0,0,0,0,0,0,0,0,0,0,0,0,0,0,0,0,0,0,0,0,0,0,0,0,0,0,0,0,0,0,0,0,0,0,0,0,0,0,0,0,0],"id":2,"left_children":[1,3,5,7,9,11,13,15,17,19,21,23,25,27,29,31,33,35,37,39,41,43,45,47,49,51,53,55,57,59,61,-1,-1,-1,-1,-1,-1,-1,-1,-1,-1,-1,-1,-1,-1,-1,-1,-1,-1,-1,-1,-1,-1,-1,-1,-1,-1,-1,-1,-1,-1,-1,-1],"loss_changes":[3.9781833E3,5.563345E2,9.189922E2,7.136987E1,2.128169E2,1.4689816E2,2.0855371E2,8.768066E0,2.4299927E1,6.0999825E1,6.3911987E1,8.740055E1,4.6450333E1,4.737982E1,4.5858765E1,3.9919434E0,7.26593E0,1.7789673E1,1.113669E1,4.3496094E1,2.407861E1,2.0822083E1,3.353253E1,1.8599325E1,2.9026531E1,3.8230392E1,1.3054499E1,2.429358E1,4.027423E1,2.4563782E1,1.0061462E1,0E0,0E0,0E0,0E0,0E0,0E0,0E0,0E0,0E0,0E0,0E0,0E0,0E0,0E0,0E0,0E0,0E0,0E0,0E0,0E0,0E0,0E0,0E0,0E0,0E0,0E0,0E0,0E0,0E0,0E0,0E0,0E0],"parents":[2147483647,0,0,1,1,2,2,3,3,4,4,5,5,6,6,7,7,8,8,9,9,10,10,11,11,12,12,13,13,14,14,15,15,16,16,17,17,18,18,19,19,20,20,21,21,22,22,23,23,24,24,25,25,26,26,27,27,28,28,29,29,30,30],"right_children":[2,4,6,8,10,12,14,16,18,20,22,24,26,28,30,32,34,36,38,40,42,44,46,48,50,52,54,56,58,60,62,-1,-1,-1,-1,-1,-1,-1,-1,-1,-1,-1,-1,-1,-1,-1,-1,-1,-1,-1,-1,-1,-1,-1,-1,-1,-1,-1,-1,-1,-1,-1,-1],"split_conditions":[-2.0450983E1,-1.6155258E2,3.45E2,-2.7846848E2,1.4E1,4.8287544E1,1.8074721E2,-3.051E3,3.36E2,-4.4145744E1,-2.4927764E0,1.1E1,2.33E2,-5.4E1,2.980258E2,9.654952E0,-3.19E2,-4.0079767E-1,4E0,1.0678945E0,5.9629865E0,-5.98E2,1.64E2,-4.4958625E0,7.3E1,-1.536497E0,2.0945418E2,6.5E2,8.266924E1,-5.5E1,4.0267715E2,-7.557732E-2,2.4362223E-3,4.3287244E-2,-6.2595144E-2,-5.3143557E-2,-4.003285E-2,-4.0991763E-3,-6.516857E-2,-2.0853793E-2,-1.3927127E-4,4.5301337E-3,4.4354245E-2,-4.596215E-2,-3.173634E-2,-2.035933E-2,-4.9751155E-2,-8.844517E-3,1.0930486E-2,-5.7075755E-3,-2.261249E-2,8.53292E-3,2.4929484E-2,-5.0925624E-2,2.1144852E-2,3.0979136E-2,4.5178708E-2,1.5534309E-2,3.4270294E-2,5.805507E-2,4.1007936E-2,6.4356655E-2,8.09305E-2],"split_indices":[13,13,1,13,2,13,13,1,1,13,37,2,2,2,13,26,2,31,17,35,37,1,2,42,2,26,13,1,13,2,13,0,0,0,0,0,0,0,0,0,0,0,0,0,0,0,0,0,0,0,0,0,0,0,0,0,0,0,0,0,0,0,0],"split_type":[0,0,0,0,0,0,0,0,0,0,0,0,0,0,0,0,0,0,0,0,0,0,0,0,0,0,0,0,0,0,0,0,0,0,0,0,0,0,0,0,0,0,0,0,0,0,0,0,0,0,0,0,0,0,0,0,0,0,0,0,0,0,0],"sum_hessian":[1.3409525E4,5.7739536E3,7.635572E3,1.8402866E3,3.933667E3,3.8909617E3,3.74461E3,5.812367E2,1.2590499E3,1.5902329E3,2.343434E3,2.2623835E3,1.628578E3,2.41438E3,1.3302302E3,2.873514E2,2.9388525E2,1.2048342E3,5.4215763E1,1.0906737E3,4.9955927E2,1.0575795E3,1.2858546E3,1.0981534E3,1.1642302E3,1.5908556E3,3.7722378E1,1.2606355E3,1.1537444E3,8.789844E2,4.512458E2,2.85858E2,1.4934165E0,1.2467965E0,2.9263846E2,8.017992E2,4.03035E2,4.572001E1,8.495757E0,6.893049E2,4.013688E2,4.5860083E2,4.095844E1,5.7039075E2,4.871887E2,1.1799514E3,1.0590317E2,1.3498026E2,9.631732E2,7.891119E2,3.7511832E2,5.3982166E2,1.0510339E3,3.0234888E1,7.4874907E0,5.2722516E2,7.3341034E2,5.601515E2,5.9359296E2,4.8696704E2,3.9201733E2,2.9272894E2,1.5851685E2],"tree_param":{"num_deleted":"0","num_feature":"67","num_nodes":"63","size_leaf_vector":"1"}},{"base_weights":[-3.2864572E-3,-6.295993E-1,4.5800322E-1,-1.0907799E0,-4.3763196E-1,1.5855907E-1,8.321822E-1,-1.3365369E0,-9.4353086E-1,-5.893745E-1,-2.4819137E-1,-2.4329431E-2,2.5361347E-1,6.824671E-1,1.2399311E0,-1.2539598E0,-1.5219442E0,-8.735256E-1,-1.2218765E0,-8.004359E-1,-5.374315E-1,-2.719096E-1,3.7425655E-1,-6.952912E-1,1.4532672E-3,1.9723067E-1,5.470919E-1,5.930336E-1,7.9735523E-1,1.1584804E0,1.5287849E0,-6.802837E-2,-5.5422246E-2,-2.9956482E-3,-7.654041E-2,-2.5276182E-2,-4.5511298E-2,-6.509372E-2,-3.100254E-2,-4.2995937E-2,-1.9152842E-2,-3.7111755E-2,-2.4551325E-2,-2.3915224E-2,-1.123463E-2,2.6046748E-3,4.0890373E-2,-4.616283E-2,-7.4083703E-3,-1.6387377E-3,1.8138956E-2,-2.7648916E-2,1.042322E-2,2.0759502E-2,4.805039E-2,-7.794677E-3,3.0570636E-2,-4.4683725E-2,4.029695E-2,5.4025766E-2,6.8833545E-2,7.6844014E-2,5.1699597E-3],"categories":[],"categories_nodes":[],"categories_segments":[],"categories_sizes":[],"default_left":[0,0,0,0,0,0,0,0,0,0,0,0,0,0,0,0,0,0,0,0,0,0,0,0,0,0,0,0,0,0,0,0,0,0,0,0,0,0,0,0,0,0,0,0,0,0,0,0,0,0,0,0,0,0,0,0,0,0,0,0,0,0,0],"id":3,"left_children":[1,3,5,7,9,11,13,15,17,19,21,23,25,27,29,31,33,35,37,39,41,43,45,47,49,51,53,55,57,59,61,-1,-1,-1,-1,-1,-1,-1,-1,-1,-1,-1,-1,-1,-1,-1,-1,-1,-1,-1,-1,-1,-1,-1,-1,-1,-1,-1,-1,-1,-1,-1,-1],"loss_changes":[3.8756873E3,5.0333008E2,8.6538684E2,5.963916E1,1.1535828E2,7.46359E1,2.0899927E2,8.33606E0,1.9665405E1,2.4105225E1,2.6443115E1,2.54626E1,4.660782E1,2.544336E1,2.0523438E1,5.7559814E0,2.2554932E0,1.095874E1,9.463593E0,1.0613281E1,1.6724915E1,1.666893E1,9.279958E0,6.6172256E0,1.7525213E1,1.9999405E1,2.448291E1,1.9575409E1,1.6288391E1,1.1276489E1,2.073883E0,0E0,0E0,0E0,0E0,0E0,0E0,0E0,0E0,0E0,0E0,0E0,0E0,0E0,0E0,0E0,0E0,0E0,0E0,0E0,0E0,0E0,0E0,0E0,0E0,0E0,0E0,0E0,0E0,0E0,0E0,0E0,0E0],"parents":[2147483647,0,0,1,1,2,2,3,3,4,4,5,5,6,6,7,7,8,8,9,9,10,10,11,11,12,12,13,13,14,14,15,15,16,16,17,17,18,18,19,19,20,20,21,21,22,22,23,23,24,24,25,25,26,26,27,27,28,28,29,29,30,30],"right_children":[2,4,6,8,10,12,14,16,18,20,22,24,26,28,30,32,34,36,38,40,42,44,46,48,50,52,54,56,58,60,62,-1,-1,-1,-1,-1,-1,-1,-1,-1,-1,-1,-1,-1,-1,-1,-1,-1,-1,-1,-1,-1,-1,-1,-1,-1,-1,-1,-1,-1,-1,-1,-1],"split_conditions":[-3.0857147E1,-1.9738405E2,1.0691067E2,-3.0014944E2,-9.086397E1,1.1635177E1,2.6021872E2,5E0,5E0,-5.840008E0,1.665465E1,-1.2110015E1,6.6975255E0,1.7460321E2,4.099412E2,-4.9096007E0,-8.7E1,-2.4662467E-3,2.0261035E0,2.5855315E0,-1.3E1,-8.027641E0,2.7142062E0,-2.2738326E0,5.1330953E0,-1.3768434E1,8.538E0,-8.459812E0,-2.4444508E1,5E0,3.1740048E0,-6.802837E-2,-5.5422246E-2,-2.9956482E-3,-7.654041E-2,-2.5276182E-2,-4.5511298E-2,-6.509372E-2,-3.100254E-2,-4.2995937E-2,-1.9152842E-2,-3.7111755E-2,-2.4551325E-2,-2.3915224E-2,-1.123463E-2,2.6046748E-3,4.0890373E-2,-4.616283E-2,-7.4083703E-3,-1.6387377E-3,1.8138956E-2,-2.7648916E-2,1.042322E-2,2.0759502E-2,4.805039E-2,-7.794677E-3,3.0570636E-2,-4.4683725E-2,4.029695E-2,5.4025766E-2,6.8833545E-2,7.6844014E-2,5.1699597E-3],"split_indices":[5,5,5,5,5,5,5,3,3,35,36,33,33,5,5,35,62,6,48,25,60,38,43,22,37,25,24,28,22,3,54,0,0,0,0,0,0,0,0,0,0,0,0,0,0,0,0,0,0,0,0,0,0,0,0,0,0,0,0,0,0,0,0],"split_type":[0,0,0,0,0,0,0,0,0,0,0,0,0,0,0,0,0,0,0,0,0,0,0,0,0,0,0,0,0,0,0,0,0,0,0,0,0,0,0,0,0,0,0,0,0,0,0,0,0,0,0,0,0,0,0,0,0,0,0,0,0,0,0],"sum_hessian":[1.3413726E4,5.689238E3,7.7244883E3,1.6712878E3,4.0179497E3,4.291283E3,3.4332048E3,6.2442035E2,1.0468674E3,2.2300718E3,1.7878779E3,1.4673541E3,2.823929E3,2.5123247E3,9.208801E2,4.3506937E2,1.8935097E2,8.384273E2,2.0844014E2,4.386327E2,1.7914392E3,1.722678E3,6.5200005E1,5.3961815E1,1.4133923E3,2.3698186E3,4.5411057E2,1.4148784E3,1.0974464E3,7.2055115E2,2.00329E2,2.4829814E2,1.8677122E2,1.2324444E0,1.8811852E2,7.694955E1,7.614778E2,1.8332397E2,2.5116163E1,3.832448E2,5.5387897E1,3.2914398E2,1.4622952E3,3.1948083E2,1.4031971E3,3.822229E1,2.6977713E1,3.7719177E1,1.6242638E1,1.2912513E3,1.2214101E2,3.447541E1,2.335343E3,3.453133E2,1.0879726E2,3.367036E1,1.381208E3,5.2233157E0,1.092223E3,5.3339124E2,1.8715993E2,1.9908902E2,1.2399783E0],"tree_param":{"num_deleted":"0","num_feature":"67","num_nodes":"63","size_leaf_vector":"1"}},{"base_weights":[3.945891E-3,-6.2587714E-1,4.2562065E-1,-9.542041E-1,-3.7075928E-1,1.4894594E-1,8.1224424E-1,-1.2868037E0,-8.345513E-1,-5.341797E-1,-2.5107723E-1,2.8457215E-1,-3.7364777E-2,6.7533016E-1,1.2285407E0,-1.2957298E0,7.253232E-1,-9.0610695E-1,-5.7771546E-1,-3.09094E-1,-6.5301937E-1,-1.861255E-1,-6.1110574E-1,-4.6331532E-2,3.5696596E-1,-1.3209341E-1,1.966788E-1,1.9937189E-1,7.13875E-1,1.1414366E0,1.4890593E0,-7.804103E-2,-6.2123843E-2,-7.743571E-3,7.277347E-2,-3.2305133E-2,-4.9454276E-2,-2.5772909E-2,-6.3394666E-2,-1.1336462E-3,-2.3864558E-2,-3.0005125E-2,-5.650639E-2,-0E0,-1.4442021E-2,-4.939876E-2,-2.4432043E-2,-5.699535E-2,-3.722323E-4,2.280291E-2,7.2989888E-3,-5.3811553E-3,-4.2796027E-2,1.666505E-2,-3.5682463E-3,1.3486187E-2,-3.6818128E-2,4.096179E-2,2.748189E-2,-3.9642166E-2,5.7383355E-2,1.30687505E-2,7.544985E-2],"categories":[],"categories_nodes":[],"categories_segments":[],"categories_sizes":[],"default_left":[0,0,0,0,0,0,0,0,0,0,0,0,0,0,0,0,0,0,0,0,0,0,0,0,0,0,0,0,0,0,0,0,0,0,0,0,0,0,0,0,0,0,0,0,0,0,0,0,0,0,0,0,0,0,0,0,0,0,0,0,0,0,0],"id":4,"left_children":[1,3,5,7,9,11,13,15,17,19,21,23,25,27,29,31,33,35,37,39,41,43,45,47,49,51,53,55,57,59,61,-1,-1,-1,-1,-1,-1,-1,-1,-1,-1,-1,-1,-1,-1,-1,-1,-1,-1,-1,-1,-1,-1,-1,-1,-1,-1,-1,-1,-1,-1,-1,-1],"loss_changes":[3.5345974E3,4.4673975E2,8.525886E2,9.2105225E1,5.8615875E1,1.17464E2,1.8890723E2,1.1593323E1,3.1155396E1,3.3756012E1,4.044905E1,6.447731E1,4.341678E1,4.576367E1,1.7542603E1,7.413208E0,2.165882E0,2.8473267E1,1.56484375E1,2.1133934E1,2.0442444E1,2.8100708E1,1.1832481E1,2.0422976E1,4.6056152E1,2.4556517E1,2.0694162E1,1.2457212E1,3.970459E1,7.944763E0,4.6207275E0,0E0,0E0,0E0,0E0,0E0,0E0,0E0,0E0,0E0,0E0,0E0,0E0,0E0,0E0,0E0,0E0,0E0,0E0,0E0,0E0,0E0,0E0,0E0,0E0,0E0,0E0,0E0,0E0,0E0,0E0,0E0,0E0],"parents":[2147483647,0,0,1,1,2,2,3,3,4,4,5,5,6,6,7,7,8,8,9,9,10,10,11,11,12,12,13,13,14,14,15,15,16,16,17,17,18,18,19,19,20,20,21,21,22,22,23,23,24,24,25,25,26,26,27,27,28,28,29,29,30,30],"right_children":[2,4,6,8,10,12,14,16,18,20,22,24,26,28,30,32,34,36,38,40,42,44,46,48,50,52,54,56,58,60,62,-1,-1,-1,-1,-1,-1,-1,-1,-1,-1,-1,-1,-1,-1,-1,-1,-1,-1,-1,-1,-1,-1,-1,-1,-1,-1,-1,-1,-1,-1,-1,-1],"split_conditions":[-3.8664795E1,-1.5709338E2,1.1107027E2,-3.0014944E2,-7.9165596E1,-3E0,2.7157245E2,4.694372E1,-9.402463E1,1.7E1,9.3E1,-2.9163593E1,4.5384476E1,-1.0082779E0,4.099412E2,-4.781123E2,-2.3590643E0,-4.4E0,7.7E0,-3.3E0,1.48E2,-1.6E0,-8.630815E0,-1.0315546E1,2.8E0,3.23E2,3.8E0,2.2433076E0,2.2E0,-1.4894442E1,7.569986E1,-7.804103E-2,-6.2123843E-2,-7.743571E-3,7.277347E-2,-3.2305133E-2,-4.9454276E-2,-2.5772909E-2,-6.3394666E-2,-1.1336462E-3,-2.3864558E-2,-3.0005125E-2,-5.650639E-2,-0E0,-1.4442021E-2,-4.939876E-2,-2.4432043E-2,-5.699535E-2,-3.722323E-4,2.280291E-2,7.2989888E-3,-5.3811553E-3,-4.2796027E-2,1.666505E-2,-3.5682463E-3,1.3486187E-2,-3.6818128E-2,4.096179E-2,2.748189E-2,-3.9642166E-2,5.7383355E-2,1.30687505E-2,7.544985E-2],"split_indices":[5,5,5,5,13,2,5,13,13,2,2,13,13,13,5,5,44,0,0,0,2,0,33,28,0,2,0,55,0,31,13,0,0,0,0,0,0,0,0,0,0,0,0,0,0,0,0,0,0,0,0,0,0,0,0,0,0,0,0,0,0,0,0],"split_type":[0,0,0,0,0,0,0,0,0,0,0,0,0,0,0,0,0,0,0,0,0,0,0,0,0,0,0,0,0,0,0,0,0,0,0,0,0,0,0,0,0,0,0,0,0,0,0,0,0,0,0,0,0,0,0,0,0,0,0,0,0,0,0],"sum_hessian":[1.3308024E4,5.336631E3,7.9713936E3,2.3327322E3,3.0038987E3,4.6469233E3,3.32447E3,6.156615E2,1.7170707E3,1.268818E3,1.7350808E3,2.6894165E3,1.9575068E3,2.5028645E3,8.216055E2,6.131691E2,2.4923828E0,1.3416323E3,3.754384E2,4.3933923E2,8.2947876E2,1.4707781E3,2.6430273E2,4.8254742E2,2.2068691E3,1.3939526E3,5.6355426E2,1.8793152E2,2.3149329E3,6.180395E2,2.0356601E2,9.988973E1,5.1327936E2,1.246594E0,1.2457888E0,3.2593835E2,1.015694E3,3.4530826E2,3.0130108E1,1.6297418E2,2.7636505E2,7.478697E2,8.160906E1,5.235267E2,9.472514E2,6.375497E1,2.0054776E2,1.59954605E1,4.6655194E2,1.500899E3,7.059702E2,1.3490577E3,4.4894886E1,3.734551E2,1.9009917E2,1.7522055E2,1.2710961E1,1.4086547E3,9.062782E2,1.730166E0,6.163093E2,3.445984E0,2.0012003E2],"tree_param":{"num_deleted":"0","num_feature":"67","num_nodes":"63","size_leaf_vector":"1"}},{"base_weights":[-2.4989278E-3,-5.0610924E-1,4.3652683E-1,-9.508146E-1,-3.0142647E-1,1.2713157E-1,7.332648E-1,-1.1278038E0,-7.566424E-1,3.083376E-2,-4.4475886E-1,1.7428609E-2,4.2453283E-1,5.7075393E-1,1.0198399E0,-1.3193778E0,-1.0258607E0,-4.814373E-1,-8.6347026E-1,-2.1147133E-1,1.6893381E-1,-3.572535E-1,-7.785509E-1,2.745254E-1,-9.5060304E-2,5.647359E-1,1.6728249E-1,7.193373E-1,4.3711936E-1,8.255288E-1,1.139377E0,-6.658322E-2,-0E0,-2.8623505E-2,-5.3070225E-2,8.333195E-3,-2.7358243E-2,-5.130911E-2,-3.357614E-2,-1.540622E-2,4.9546463E-3,2.5804738E-2,4.8827697E-3,-2.470774E-2,-1.10499E-2,-5.2705415E-2,-3.2900576E-2,9.118445E-3,2.5138501E-2,-1.9995999E-3,-3.1240627E-2,-2.1439021E-2,2.9304733E-2,-6.676759E-3,1.5299454E-2,3.1626735E-2,4.5747768E-2,3.9642785E-2,1.7674355E-2,4.7832064E-2,2.9222447E-2,4.267668E-2,6.06579E-2],"categories":[],"categories_nodes":[],"categories_segments":[],"categories_sizes":[],"default_left":[0,0,0,0,0,0,0,0,0,0,0,0,0,0,0,0,0,0,0,0,0,0,0,0,0,0,0,0,0,0,0,0,0,0,0,0,0,0,0,0,0,0,0,0,0,0,0,0,0,0,0,0,0,0,0,0,0,0,0,0,0,0,0],"id":5,"left_children":[1,3,5,7,9,11,13,15,17,19,21,23,25,27,29,31,33,35,37,39,41,43,45,47,49,51,53,55,57,59,61,-1,-1,-1,-1,-1,-1,-1,-1,-1,-1,-1,-1,-1,-1,-1,-1,-1,-1,-1,-1,-1,-1,-1,-1,-1,-1,-1,-1,-1,-1,-1,-1],"loss_changes":[2.9479768E3,5.6498755E2,6.5385474E2,6.663867E1,2.0261728E2,1.1375273E2,1.6887341E2,1.9057617E1,2.7145447E1,4.291812E1,8.655127E1,7.3746315E1,3.3770706E1,4.5821533E1,2.9872925E1,5.786133E0,1.0329346E1,1.1280045E1,2.0493439E1,1.4007025E1,2.0136127E1,4.3817047E1,1.9962952E1,1.621225E1,5.164979E1,1.3037659E1,1.3908525E1,1.8202026E1,3.6155624E1,1.5462769E1,1.6408936E1,0E0,0E0,0E0,0E0,0E0,0E0,0E0,0E0,0E0,0E0,0E0,0E0,0E0,0E0,0E0,0E0,0E0,0E0,0E0,0E0,0E0,0E0,0E0,0E0,0E0,0E0,0E0,0E0,0E0,0E0,0E0,0E0],"parents":[2147483647,0,0,1,1,2,2,3,3,4,4,5,5,6,6,7,7,8,8,9,9,10,10,11,11,12,12,13,13,14,14,15,15,16,16,17,17,18,18,19,19,20,20,21,21,22,22,23,23,24,24,25,25,26,26,27,27,28,28,29,29,30,30],"right_children":[2,4,6,8,10,12,14,16,18,20,22,24,26,28,30,32,34,36,38,40,42,44,46,48,50,52,54,56,58,60,62,-1,-1,-1,-1,-1,-1,-1,-1,-1,-1,-1,-1,-1,-1,-1,-1,-1,-1,-1,-1,-1,-1,-1,-1,-1,-1,-1,-1,-1,-1,-1,-1],"split_conditions":[-1.0336228E1,-1.5181746E2,3.45E2,-2.1969347E2,-1E0,8.445975E1,1.8074721E2,-3.236516E2,-4E0,-2.5164456E0,9.1E1,-1E1,3.9E0,-1E-1,1.446E3,1E0,-8.3E0,-2E1,-3.0413835E0,2.840457E0,-9.4E1,-7.2137344E1,-7.4019165E0,4.3796754E0,1.64E2,-1.5815625E1,-7.943842E-1,4.960626E0,-1.39E2,2.9E0,1.0190748E0,-6.658322E-2,-0E0,-2.8623505E-2,-5.3070225E-2,8.333195E-3,-2.7358243E-2,-5.130911E-2,-3.357614E-2,-1.540622E-2,4.9546463E-3,2.5804738E-2,4.8827697E-3,-2.470774E-2,-1.10499E-2,-5.2705415E-2,-3.2900576E-2,9.118445E-3,2.5138501E-2,-1.9995999E-3,-3.1240627E-2,-2.1439021E-2,2.9304733E-2,-6.676759E-3,1.5299454E-2,3.1626735E-2,4.5747768E-2,3.9642785E-2,1.7674355E-2,4.7832064E-2,2.9222447E-2,4.267668E-2,6.06579E-2],"split_indices":[13,13,1,13,2,13,13,13,0,26,2,2,0,0,1,63,0,2,26,33,2,13,38,33,2,31,35,33,2,0,35,0,0,0,0,0,0,0,0,0,0,0,0,0,0,0,0,0,0,0,0,0,0,0,0,0,0,0,0,0,0,0,0],"split_type":[0,0,0,0,0,0,0,0,0,0,0,0,0,0,0,0,0,0,0,0,0,0,0,0,0,0,0,0,0,0,0,0,0,0,0,0,0,0,0,0,0,0,0,0,0,0,0,0,0,0,0,0,0,0,0,0,0,0,0,0,0,0,0],"sum_hessian":[1.3332323E4,6.209501E3,7.1228223E3,1.9564647E3,4.2530366E3,3.4875562E3,3.635266E3,1.0219927E3,9.34472E2,1.2816729E3,2.9713635E3,2.5483916E3,9.391644E2,2.3209485E3,1.3143175E3,3.5253967E2,6.69453E2,2.6233795E2,6.7213403E2,4.6493167E2,8.1674115E2,2.3552554E3,6.161081E2,7.756923E2,1.7726993E3,6.0723254E2,3.319319E2,1.097613E3,1.2233354E3,5.0241547E2,8.119021E2,3.4931796E2,3.221736E0,4.94933E1,6.199597E2,2.3944624E1,2.3839333E2,3.623119E2,3.0982214E2,3.5482867E2,1.1010301E2,1.3835603E2,6.7838513E2,1.1738224E3,1.181433E3,1.8606194E2,4.3004617E2,5.5353394E2,2.2215837E2,1.6064352E3,1.6626414E2,1.2480404E1,5.9475214E2,1.0453058E2,2.274013E2,7.6207965E2,3.3553342E2,2.3182294E2,9.9151245E2,3.2419922E2,1.7821625E2,1.6813818E2,6.437639E2],"tree_param":{"num_deleted":"0","num_feature":"67","num_nodes":"63","size_leaf_vector":"1"}},{"base_weights":[-4.9315026E-4,-5.6916434E-1,3.8190177E-1,-9.629093E-1,-3.9403963E-1,1.2718186E-1,7.519421E-1,-1.2685266E0,-8.795429E-1,-5.455303E-1,-2.5469515E-1,-1.3751843E-2,2.892322E-1,6.2152576E-1,1.1338599E0,-1.0231974E0,-1.3455273E0,-8.120761E-1,-1.0913918E0,-4.2357203E-1,-6.740013E-1,-5.064434E-1,-2.056037E-1,-2.701655E-1,4.2019006E-2,4.393543E-1,1.6831183E-1,7.103317E-1,4.6135253E-1,1.0547545E0,1.3717482E0,-5.4177552E-2,3.9618625E-3,-2.2939561E-2,-6.810892E-2,-4.2059883E-2,-2.1736667E-2,-5.5046078E-2,3.125998E-2,-3.562926E-2,-1.7921196E-2,-2.4653194E-2,-3.7921205E-2,-2.7567971E-2,5.433517E-3,-2.1382343E-2,-7.499953E-3,-2.7071783E-2,-6.6342237E-3,7.5221076E-3,-5.596433E-3,-5.5287057E-3,2.3459299E-2,6.5789544E-3,4.9375165E-2,3.1188074E-2,4.0918253E-2,1.7939245E-2,3.2787394E-2,-2.7032128E-2,5.324405E-2,6.938357E-2,-2.0159876E-3],"categories":[],"categories_nodes":[],"categories_segments":[],"categories_sizes":[],"default_left":[0,0,0,0,0,0,0,0,0,0,0,0,0,0,0,0,0,0,0,0,0,0,0,0,0,0,0,0,0,0,0,0,0,0,0,0,0,0,0,0,0,0,0,0,0,0,0,0,0,0,0,0,0,0,0,0,0,0,0,0,0,0,0],"id":6,"left_children":[1,3,5,7,9,11,13,15,17,19,21,23,25,27,29,31,33,35,37,39,41,43,45,47,49,51,53,55,57,59,61,-1,-1,-1,-1,-1,-1,-1,-1,-1,-1,-1,-1,-1,-1,-1,-1,-1,-1,-1,-1,-1,-1,-1,-1,-1,-1,-1,-1,-1,-1,-1,-1],"loss_changes":[2.8970586E3,3.690376E2,7.5068787E2,4.122827E1,7.813733E1,1.07799194E2,1.6122144E2,5.7226562E0,1.7905334E1,2.757544E1,2.3766525E1,3.6122547E1,3.9753403E1,3.417151E1,1.4574829E1,5.8964615E0,3.43219E0,1.0525513E1,5.487274E0,1.6953598E1,1.2881165E1,8.770599E0,1.9896584E1,1.6727322E1,3.461702E1,1.6117966E1,3.6446945E1,1.4161011E1,1.7042603E1,1.0392944E1,4.752014E0,0E0,0E0,0E0,0E0,0E0,0E0,0E0,0E0,0E0,0E0,0E0,0E0,0E0,0E0,0E0,0E0,0E0,0E0,0E0,0E0,0E0,0E0,0E0,0E0,0E0,0E0,0E0,0E0,0E0,0E0,0E0,0E0],"parents":[2147483647,0,0,1,1,2,2,3,3,4,4,5,5,6,6,7,7,8,8,9,9,10,10,11,11,12,12,13,13,14,14,15,15,16,16,17,17,18,18,19,19,20,20,21,21,22,22,23,23,24,24,25,25,26,26,27,27,28,28,29,29,30,30],"right_children":[2,4,6,8,10,12,14,16,18,20,22,24,26,28,30,32,34,36,38,40,42,44,46,48,50,52,54,56,58,60,62,-1,-1,-1,-1,-1,-1,-1,-1,-1,-1,-1,-1,-1,-1,-1,-1,-1,-1,-1,-1,-1,-1,-1,-1,-1,-1,-1,-1,-1,-1,-1,-1],"split_conditions":[-3.8664795E1,-1.9738405E2,1.1340516E2,-3.5220956E2,-1.06809784E2,1.41E2,2.7157245E2,-3.2235518E-1,1.28E2,-2E-1,0E0,-3.088469E0,-7E-1,2.5E0,4.099412E2,6.1476356E-1,-1.29E1,7.3568454E0,5.8217335E0,-5.6145825E0,-1.8727491E-3,1.5156926E1,-3.632265E0,-6.051822E0,1.7E0,-8.156161E0,2.421976E1,3.6052191E0,4.142528E0,-1.4143106E1,3.0356927E0,-5.4177552E-2,3.9618625E-3,-2.2939561E-2,-6.810892E-2,-4.2059883E-2,-2.1736667E-2,-5.5046078E-2,3.125998E-2,-3.562926E-2,-1.7921196E-2,-2.4653194E-2,-3.7921205E-2,-2.7567971E-2,5.433517E-3,-2.1382343E-2,-7.499953E-3,-2.7071783E-2,-6.6342237E-3,7.5221076E-3,-5.596433E-3,-5.5287057E-3,2.3459299E-2,6.5789544E-3,4.9375165E-2,3.1188074E-2,4.0918253E-2,1.7939245E-2,3.2787394E-2,-2.7032128E-2,5.324405E-2,6.938357E-2,-2.0159876E-3],"split_indices":[5,5,5,5,5,1,5,54,4,0,15,37,0,0,5,27,0,38,32,37,11,47,34,31,0,33,22,38,32,31,54,0,0,0,0,0,0,0,0,0,0,0,0,0,0,0,0,0,0,0,0,0,0,0,0,0,0,0,0,0,0,0,0],"split_type":[0,0,0,0,0,0,0,0,0,0,0,0,0,0,0,0,0,0,0,0,0,0,0,0,0,0,0,0,0,0,0,0,0,0,0,0,0,0,0,0,0,0,0,0,0,0,0,0,0,0,0,0,0,0,0,0,0,0,0,0,0,0,0],"sum_hessian":[1.3321359E4,5.356123E3,7.9652363E3,1.6479968E3,3.708126E3,4.718302E3,3.2469346E3,3.5141583E2,1.2965809E3,1.7755895E3,1.9325366E3,2.5234878E3,2.194814E3,2.421591E3,8.2534357E2,8.5965805E1,2.6545E2,9.855918E2,3.109892E2,9.123844E2,8.632051E2,3.142615E2,1.618275E3,4.5079068E2,2.072697E3,9.782175E2,1.2165963E3,1.5563511E3,8.6524005E2,6.2173444E2,2.0360915E2,8.159793E1,4.367876E0,5.2665854E0,2.6018344E2,9.141614E2,7.143039E1,3.0950854E2,1.4806516E0,1.6663708E2,7.457473E2,2.7608862E2,5.8711646E2,2.9307535E2,2.1186169E1,3.2306256E2,1.2952125E3,1.5088197E2,2.9990872E2,1.2165554E3,8.5614166E2,5.0092262E1,9.2812524E2,1.1650573E3,5.1539074E1,8.663958E2,6.899552E2,5.6766406E2,2.9757602E2,3.6939428E0,6.180405E2,2.0141731E2,2.191823E0],"tree_param":{"num_deleted":"0","num_feature":"67","num_nodes":"63","size_leaf_vector":"1"}},{"base_weights":[5.116486E-3,-5.36214E-1,3.9662308E-1,-8.9298946E-1,-3.56766E-1,1.3638516E-1,7.16258E-1,-1.1403923E0,-7.60528E-1,-5.058024E-1,-2.1279453E-1,3.580385E-2,3.1912944E-1,6.0609996E-1,1.0755924E0,-1.4094771E0,-1.0899312E0,-4.9631618E-2,-8.010705E-1,-6.31208E-1,-3.6690784E-1,-7.303762E-2,-3.4917063E-1,-1.3117385E-1,1.4263888E-1,4.2313963E-1,1.3149717E-1,7.0790344E-1,4.3513244E-1,9.9577E-1,1.3231188E0,-7.274372E-2,1.1087975E-2,-4.6558738E-2,-6.073722E-2,-4.1720267E-2,8.9767575E-3,-4.9952194E-2,-3.676667E-2,-2.7014608E-2,-4.3564647E-2,-2.0260453E-2,4.8117833E-3,-7.842172E-3,1.7080959E-2,-1.8160349E-2,6.659247E-2,-3.258836E-2,-4.5445426E-3,-7.950348E-3,1.1130638E-2,-4.670768E-2,2.1606902E-2,5.262516E-3,6.44428E-2,2.4485277E-2,3.9789874E-2,-1.1187745E-2,2.3563579E-2,5.0280627E-2,-1.3927499E-2,-2.993396E-2,6.683794E-2],"categories":[],"categories_nodes":[],"categories_segments":[],"categories_sizes":[],"default_left":[0,0,0,0,0,0,0,0,0,0,0,0,0,0,0,0,0,0,0,0,0,0,0,0,0,0,0,0,0,0,0,0,0,0,0,0,0,0,0,0,0,0,0,0,0,0,0,0,0,0,0,0,0,0,0,0,0,0,0,0,0,0,0],"id":7,"left_children":[1,3,5,7,9,11,13,15,17,19,21,23,25,27,29,31,33,35,37,39,41,43,45,47,49,51,53,55,57,59,61,-1,-1,-1,-1,-1,-1,-1,-1,-1,-1,-1,-1,-1,-1,-1,-1,-1,-1,-1,-1,-1,-1,-1,-1,-1,-1,-1,-1,-1,-1,-1,-1],"loss_changes":[2.8185818E3,3.570625E2,6.418417E2,6.0572144E1,7.958081E1,7.8167816E1,1.3659717E2,7.8064575E0,3.4998657E1,3.1564545E1,3.598014E1,4.8985107E1,2.9387466E1,4.589148E1,1.5148071E1,7.735214E0,1.0113892E1,1.2078275E1,1.4452698E1,2.0528961E1,1.543512E1,3.2491573E1,2.2711876E1,2.2357512E1,4.0426353E1,1.2010666E1,1.6185028E1,3.1533875E1,2.3686111E1,7.940735E0,5.614685E0,0E0,0E0,0E0,0E0,0E0,0E0,0E0,0E0,0E0,0E0,0E0,0E0,0E0,0E0,0E0,0E0,0E0,0E0,0E0,0E0,0E0,0E0,0E0,0E0,0E0,0E0,0E0,0E0,0E0,0E0,0E0,0E0],"parents":[2147483647,0,0,1,1,2,2,3,3,4,4,5,5,6,6,7,7,8,8,9,9,10,10,11,11,12,12,13,13,14,14,15,15,16,16,17,17,18,18,19,19,20,20,21,21,22,22,23,23,24,24,25,25,26,26,27,27,28,28,29,29,30,30],"right_children":[2,4,6,8,10,12,14,16,18,20,22,24,26,28,30,32,34,36,38,40,42,44,46,48,50,52,54,56,58,60,62,-1,-1,-1,-1,-1,-1,-1,-1,-1,-1,-1,-1,-1,-1,-1,-1,-1,-1,-1,-1,-1,-1,-1,-1,-1,-1,-1,-1,-1,-1,-1,-1],"split_conditions":[-3.0857147E1,-1.5181746E2,1.0486855E2,-2.7814313E2,-4.23E2,4.5384476E1,2.7157245E2,-4.781123E2,-9.4E0,-1.2693194E2,-5E-1,-1.6E1,2.9E0,2.3E0,4.099412E2,1.9895918E0,-1E0,-9.88841E0,-4.899149E0,9.6E1,5.584687E1,4.2326245E0,5.5223907E1,-1.1408305E1,-4.4145744E1,-5.4761906E1,1.407071E1,7.252189E1,-3.1583447E0,1.43E1,-3.9230768E-2,-7.274372E-2,1.1087975E-2,-4.6558738E-2,-6.073722E-2,-4.1720267E-2,8.9767575E-3,-4.9952194E-2,-3.676667E-2,-2.7014608E-2,-4.3564647E-2,-2.0260453E-2,4.8117833E-3,-7.842172E-3,1.7080959E-2,-1.8160349E-2,6.659247E-2,-3.258836E-2,-4.5445426E-3,-7.950348E-3,1.1130638E-2,-4.670768E-2,2.1606902E-2,5.262516E-3,6.44428E-2,2.4485277E-2,3.9789874E-2,-1.1187745E-2,2.3563579E-2,5.0280627E-2,-1.3927499E-2,-2.993396E-2,6.683794E-2],"split_indices":[5,13,5,5,1,13,5,5,0,5,0,1,0,0,5,30,0,26,40,4,13,13,50,26,13,50,34,13,13,0,9,0,0,0,0,0,0,0,0,0,0,0,0,0,0,0,0,0,0,0,0,0,0,0,0,0,0,0,0,0,0,0,0],"split_type":[0,0,0,0,0,0,0,0,0,0,0,0,0,0,0,0,0,0,0,0,0,0,0,0,0,0,0,0,0,0,0,0,0,0,0,0,0,0,0,0,0,0,0,0,0,0,0,0,0,0,0,0,0,0,0,0,0,0,0,0,0,0,0],"sum_hessian":[1.3298373E4,5.5810693E3,7.7173037E3,1.8668616E3,3.7142078E3,4.2544634E3,3.46284E3,6.493982E2,1.2174634E3,1.8240432E3,1.8901646E3,2.7448567E3,1.5096069E3,2.6515876E3,8.112526E2,1.00110146E2,5.492881E2,6.587909E1,1.1515842E3,9.572581E2,8.667851E2,9.342525E2,9.5591205E2,1.0705663E3,1.6742905E3,9.7048004E2,5.3912683E2,1.6606124E3,9.909752E2,6.156371E2,1.9561551E2,9.751175E1,2.5983953E0,2.4398347E2,3.053046E2,1.4689895E1,5.1189198E1,2.8491544E2,8.666688E2,6.958092E2,2.6144888E2,8.0083575E2,6.5949356E1,7.776372E2,1.5661533E2,9.484441E2,7.4679427E0,7.616632E1,9.9439996E2,3.5050598E2,1.3237844E3,5.979822E0,9.645002E2,5.2778937E2,1.1337464E1,4.7811346E2,1.1824989E3,5.124864E1,9.3972656E2,6.11101E2,4.536103E0,1.1757861E0,1.9443973E2],"tree_param":{"num_deleted":"0","num_feature":"67","num_nodes":"63","size_leaf_vector":"1"}},{"base_weights":[-3.581848E-3,-4.4126275E-1,3.8100958E-1,-8.2341045E-1,-2.6556674E-1,1.3428842E-1,6.6859937E-1,-1.117953E0,-7.057685E-1,-3.8402855E-1,-2.3171518E-2,-5.6601375E-2,3.145028E-1,4.6809238E-1,8.364426E-1,-5.1311785E-1,-1.1406643E0,-5.459868E-1,-8.565457E-1,-7.2885966E-1,-3.241691E-1,-2.2454186E-1,9.1905534E-2,-2.1622817E-1,5.9345655E-2,1.8957902E-1,5.1226264E-1,5.686287E-1,1.301348E-1,7.2906953E-1,1.0858066E0,-3.6112245E-2,4.3487675E-2,-6.672328E-2,-5.3368103E-2,-4.3522283E-2,-2.3019841E-2,-4.882626E-2,-3.517885E-2,-4.453645E-2,-2.7849752E-2,-1.0394244E-2,-2.2874616E-2,-1.841724E-2,-6.143517E-4,-2.87433E-3,1.1742236E-2,-1.7636014E-2,-3.7117216E-3,8.3980495E-3,-8.0983145E-3,1.5884986E-2,-1.9836943E-3,2.3081824E-2,4.7485124E-2,1.2360628E-2,3.0817676E-2,-4.0261284E-4,2.3957824E-2,-2.359781E-2,3.732794E-2,4.7982495E-2,6.2214542E-2],"categories":[],"categories_nodes":[],"categories_segments":[],"categories_sizes":[],"default_left":[0,0,0,0,0,0,0,0,0,0,0,0,0,0,0,0,0,0,0,0,0,0,0,0,0,0,0,0,0,0,0,0,0,0,0,0,0,0,0,0,0,0,0,0,0,0,0,0,0,0,0,0,0,0,0,0,0,0,0,0,0,0,0],"id":8,"left_children":[1,3,5,7,9,11,13,15,17,19,21,23,25,27,29,31,33,35,37,39,41,43,45,47,49,51,53,55,57,59,61,-1,-1,-1,-1,-1,-1,-1,-1,-1,-1,-1,-1,-1,-1,-1,-1,-1,-1,-1,-1,-1,-1,-1,-1,-1,-1,-1,-1,-1,-1,-1,-1],"loss_changes":[2.225042E3,4.148938E2,4.990974E2,6.6881836E1,1.2159793E2,1.3033911E2,1.08998535E2,7.159607E0,3.3180176E1,5.8507324E1,3.226878E1,3.406939E1,4.802437E1,5.023456E1,4.6744385E1,6.412249E0,6.6323853E0,1.8492142E1,1.261792E1,1.1297272E1,3.7490616E1,1.54189415E1,1.893367E1,1.4954174E1,2.5629116E1,3.514544E1,1.6333817E1,1.7348297E1,1.6475306E1,2.619165E1,9.792419E0,0E0,0E0,0E0,0E0,0E0,0E0,0E0,0E0,0E0,0E0,0E0,0E0,0E0,0E0,0E0,0E0,0E0,0E0,0E0,0E0,0E0,0E0,0E0,0E0,0E0,0E0,0E0,0E0,0E0,0E0,0E0,0E0],"parents":[2147483647,0,0,1,1,2,2,3,3,4,4,5,5,6,6,7,7,8,8,9,9,10,10,11,11,12,12,13,13,14,14,15,15,16,16,17,17,18,18,19,19,20,20,21,21,22,22,23,23,24,24,25,25,26,26,27,27,28,28,29,29,30,30],"right_children":[2,4,6,8,10,12,14,16,18,20,22,24,26,28,30,32,34,36,38,40,42,44,46,48,50,52,54,56,58,60,62,-1,-1,-1,-1,-1,-1,-1,-1,-1,-1,-1,-1,-1,-1,-1,-1,-1,-1,-1,-1,-1,-1,-1,-1,-1,-1,-1,-1,-1,-1,-1,-1],"split_conditions":[-1.0336228E1,-1.5181746E2,9.037618E1,-2.7846848E2,-2.3E1,9E1,7.59E2,-1.09E1,-1.1E0,-5.7242646E0,-2.5164456E0,-1.684321E0,3.3199842E0,5.5E0,2.6955408E2,-1.12E3,-4.0590726E2,-9.219782E0,-2.651918E0,-5.98E2,4E-1,-4.4145744E1,2.59E2,1.6959658E0,2.9E0,1.8E0,1.2807637E1,-2.44E2,3.768571E0,-8.771713E0,5.6896715E0,-3.6112245E-2,4.3487675E-2,-6.672328E-2,-5.3368103E-2,-4.3522283E-2,-2.3019841E-2,-4.882626E-2,-3.517885E-2,-4.453645E-2,-2.7849752E-2,-1.0394244E-2,-2.2874616E-2,-1.841724E-2,-6.143517E-4,-2.87433E-3,1.1742236E-2,-1.7636014E-2,-3.7117216E-3,8.3980495E-3,-8.0983145E-3,1.5884986E-2,-1.9836943E-3,2.3081824E-2,4.7485124E-2,1.2360628E-2,3.0817676E-2,-4.0261284E-4,2.3957824E-2,-2.359781E-2,3.732794E-2,4.7982495E-2,6.2214542E-2],"split_indices":[13,13,13,13,1,1,1,0,0,37,26,26,33,0,13,1,13,26,37,1,0,13,1,22,0,0,19,1,37,28,35,0,0,0,0,0,0,0,0,0,0,0,0,0,0,0,0,0,0,0,0,0,0,0,0,0,0,0,0,0,0,0,0],"split_type":[0,0,0,0,0,0,0,0,0,0,0,0,0,0,0,0,0,0,0,0,0,0,0,0,0,0,0,0,0,0,0,0,0,0,0,0,0,0,0,0,0,0,0,0,0,0,0,0,0,0,0,0,0,0,0,0,0,0,0,0,0,0,0],"sum_hessian":[1.321743E4,6.1821147E3,7.0353154E3,1.9463322E3,4.2357827E3,3.7872996E3,3.2480156E3,5.540482E2,1.3922839E3,2.8447905E3,1.3909923E3,1.8390731E3,1.9482264E3,1.4811323E3,1.7668833E3,2.063762E1,5.334106E2,6.774013E2,7.1488257E2,4.19711E2,2.4250796E3,5.059816E2,8.850107E2,7.7396655E2,1.0651066E3,1.1948998E3,7.533266E2,1.1410524E3,3.4007993E2,1.2367267E3,5.3015656E2,1.8196932E1,2.4406884E0,1.4365056E2,3.8976004E2,1.401938E2,5.372075E2,3.9876767E2,3.161149E2,2.1476405E2,2.0494693E2,1.2963955E3,1.128684E3,3.0112808E2,2.048535E2,4.325415E2,4.5246918E2,3.9389087E2,3.800757E2,7.1484686E2,3.502597E2,7.666768E2,4.2822302E2,6.7631146E2,7.7015175E1,1.4819255E2,9.9285986E2,2.437677E2,9.6312225E1,1.7482132E1,1.2192446E3,2.9749945E2,2.326571E2],"tree_param":{"num_deleted":"0","num_feature":"67","num_nodes":"63","size_leaf_vector":"1"}},{"base_weights":[-7.53926E-4,-3.858763E-1,4.4026983E-1,-6.9033915E-1,-1.7207024E-1,2.4189843E-1,7.600129E-1,-1.027405E0,-5.8408856E-1,-2.7023023E-1,-3.3999365E-2,1.4593475E-1,3.6590216E-1,6.6026366E-1,1.1025423E0,-1.1604868E0,-8.9417946E-1,-6.901249E-1,-4.9807772E-1,-5.0457805E-1,-2.1394344E-1,-1.7843062E-1,3.5318248E-2,1.2999095E-1,1.0101027E0,5.1754E-1,2.3971577E-1,7.662751E-1,4.755444E-1,1.0118268E0,1.2622191E0,-5.8976907E-2,-1.797428E-2,-4.7776517E-2,-3.151316E-2,-3.804256E-2,-2.2735475E-2,-3.247899E-2,-2.0213638E-2,3.281184E-2,-2.630997E-2,-6.613675E-3,-1.8555418E-2,-1.4010747E-2,4.695402E-3,-8.40678E-3,5.176186E-3,1.056509E-2,-3.2000344E-3,-1.6124219E-2,5.3995427E-2,-0E0,2.7300334E-2,-6.130135E-5,1.654916E-2,3.4890775E-2,4.701426E-2,1.7085768E-2,3.2805346E-2,-3.0499721E-2,5.1231947E-2,-3.073093E-3,6.355041E-2],"categories":[],"categories_nodes":[],"categories_segments":[],"categories_sizes":[],"default_left":[0,0,0,0,0,0,0,0,0,0,0,0,0,0,0,0,0,0,0,0,0,0,0,0,0,0,0,0,0,0,0,0,0,0,0,0,0,0,0,0,0,0,0,0,0,0,0,0,0,0,0,0,0,0,0,0,0,0,0,0,0,0,0],"id":9,"left_children":[1,3,5,7,9,11,13,15,17,19,21,23,25,27,29,31,33,35,37,39,41,43,45,47,49,51,53,55,57,59,61,-1,-1,-1,-1,-1,-1,-1,-1,-1,-1,-1,-1,-1,-1,-1,-1,-1,-1,-1,-1,-1,-1,-1,-1,-1,-1,-1,-1,-1,-1,-1,-1],"loss_changes":[2.2387798E3,4.5791052E2,3.8953918E2,1.0348804E2,5.600138E1,4.505658E1,7.982471E1,1.1593872E1,1.9849121E1,3.1743866E1,1.722774E1,2.9298069E1,3.1508957E1,3.539435E1,6.804077E0,4.906708E0,5.203308E0,1.6142029E1,1.7123901E1,1.1885719E1,2.4946518E1,1.5500059E1,1.6120077E1,3.316803E1,3.837757E0,1.1022308E1,1.99122E1,1.3293152E1,1.5892212E1,7.4310913E0,2.363739E0,0E0,0E0,0E0,0E0,0E0,0E0,0E0,0E0,0E0,0E0,0E0,0E0,0E0,0E0,0E0,0E0,0E0,0E0,0E0,0E0,0E0,0E0,0E0,0E0,0E0,0E0,0E0,0E0,0E0,0E0,0E0,0E0],"parents":[2147483647,0,0,1,1,2,2,3,3,4,4,5,5,6,6,7,7,8,8,9,9,10,10,11,11,12,12,13,13,14,14,15,15,16,16,17,17,18,18,19,19,20,20,21,21,22,22,23,23,24,24,25,25,26,26,27,27,28,28,29,29,30,30],"right_children":[2,4,6,8,10,12,14,16,18,20,22,24,26,28,30,32,34,36,38,40,42,44,46,48,50,52,54,56,58,60,62,-1,-1,-1,-1,-1,-1,-1,-1,-1,-1,-1,-1,-1,-1,-1,-1,-1,-1,-1,-1,-1,-1,-1,-1,-1,-1,-1,-1,-1,-1,-1,-1],"split_conditions":[1.1635177E1,-1.2693194E2,1.5170686E2,-2.850682E2,-3.8664795E1,8.087624E1,3.0961932E2,-3.5220956E2,-4.3306017E0,-9.265377E0,-1.7514576E0,2.1951153E1,0E0,2.3E0,4.099412E2,1.0596681E1,2.4719207E0,-4.46E2,-4.063704E0,-6.2E2,1.8E0,2.2305005E0,-7.6923077E-3,3E0,1.606487E1,-6.43391E0,-1.6910071E0,2.4243683E2,5.3167977E0,-4.04E2,-3.6923077E-2,-5.8976907E-2,-1.797428E-2,-4.7776517E-2,-3.151316E-2,-3.804256E-2,-2.2735475E-2,-3.247899E-2,-2.0213638E-2,3.281184E-2,-2.630997E-2,-6.613675E-3,-1.8555418E-2,-1.4010747E-2,4.695402E-3,-8.40678E-3,5.176186E-3,1.056509E-2,-3.2000344E-3,-1.6124219E-2,5.3995427E-2,-0E0,2.7300334E-2,-6.130135E-5,1.654916E-2,3.4890775E-2,4.701426E-2,1.7085768E-2,3.2805346E-2,-3.0499721E-2,5.1231947E-2,-3.073093E-3,6.355041E-2],"split_indices":[5,5,5,5,5,5,5,5,29,29,37,24,0,0,5,49,43,1,35,17,0,43,9,0,5,30,33,5,26,1,9,0,0,0,0,0,0,0,0,0,0,0,0,0,0,0,0,0,0,0,0,0,0,0,0,0,0,0,0,0,0,0,0],"split_type":[0,0,0,0,0,0,0,0,0,0,0,0,0,0,0,0,0,0,0,0,0,0,0,0,0,0,0,0,0,0,0,0,0,0,0,0,0,0,0,0,0,0,0,0,0,0,0,0,0,0,0,0,0,0,0,0,0,0,0,0,0,0,0],"sum_hessian":[1.3180103E4,7.036123E3,6.143979E3,2.902021E3,4.1341016E3,3.7923584E3,2.3516208E3,6.9426917E2,2.207752E3,2.4155732E3,1.7185287E3,2.1389602E3,1.6533982E3,1.8226079E3,5.2901294E2,3.450176E2,3.4925153E2,9.866771E2,1.2210748E3,4.6670544E2,1.9488677E3,5.575223E2,1.1610063E3,2.10089E3,3.807024E1,7.49901E2,9.034972E2,1.1566716E3,6.6593634E2,3.4009375E2,1.8891919E2,3.3664948E2,8.368126E0,2.8200623E2,6.72453E1,7.575455E2,2.2913168E2,4.6539658E2,7.556782E2,8.180975E0,4.5852448E2,1.2834741E3,6.653936E2,4.0609888E2,1.5142339E2,2.909417E2,8.700647E2,1.4807218E3,6.201681E2,1.7335957E0,3.6336647E1,3.9234085E1,7.1066693E2,2.4805113E2,6.5544604E2,8.323036E2,3.2436798E2,3.8361163E2,2.823247E2,2.42177E0,3.37672E2,1.1513327E0,1.8776785E2],"tree_param":{"num_deleted":"0","num_feature":"67","num_nodes":"63","size_leaf_vector":"1"}},{"base_weights":[-4.213345E-3,-4.84643E-1,2.8725052E-1,-7.8948957E-1,-3.199694E-1,-1.6331118E-2,5.0443596E-1,-8.9855665E-1,-5.659544E-1,-2.192404E-1,-5.9328425E-1,-2.0694868E-1,9.611433E-2,3.5051814E-1,7.477993E-1,-8.2447433E-1,-1.1355218E0,-6.2604195E-1,-8.714165E-2,-2.7981383E-1,9.220223E-2,-5.318251E-1,-1.041154E0,-1.5035626E-1,-6.223117E-1,1.9354506E-1,-7.315432E-2,5.1075417E-1,2.2762601E-1,6.414549E-1,9.935345E-1,-4.9228266E-2,-3.6853574E-2,-5.7938125E-2,-2.0281207E-3,-4.517188E-2,-2.7872918E-2,-1.3573793E-2,5.1823802E-2,-1.6968343E-2,-5.624307E-3,-9.130983E-3,1.3161696E-2,-4.575051E-2,-2.4824109E-2,-5.5568516E-2,-1.197486E-2,-1.5555739E-2,-3.958165E-3,-3.5785563E-2,5.686009E-3,-3.437271E-3,1.23912105E-2,-8.973029E-3,9.305819E-3,1.453065E-2,2.9522E-2,-4.489468E-3,1.3867331E-2,2.8949043E-2,4.4622924E-2,3.4256104E-2,5.3871673E-2],"categories":[],"categories_nodes":[],"categories_segments":[],"categories_sizes":[],"default_left":[0,0,0,0,0,0,0,0,0,0,0,0,0,0,0,0,0,0,0,0,0,0,0,0,0,0,0,0,0,0,0,0,0,0,0,0,0,0,0,0,0,0,0,0,0,0,0,0,0,0,0,0,0,0,0,0,0,0,0,0,0,0,0],"id":10,"left_children":[1,3,5,7,9,11,13,15,17,19,21,23,25,27,29,31,33,35,37,39,41,43,45,47,49,51,53,55,57,59,61,-1,-1,-1,-1,-1,-1,-1,-1,-1,-1,-1,-1,-1,-1,-1,-1,-1,-1,-1,-1,-1,-1,-1,-1,-1,-1,-1,-1,-1,-1,-1,-1],"loss_changes":[1.8339722E3,2.4802881E2,5.375121E2,4.1874146E1,8.828363E1,7.289436E1,1.7776514E2,1.9773743E1,1.6308136E1,4.4329124E1,2.3360016E1,2.9539764E1,3.5286133E1,5.7214905E1,4.7612793E1,1.19053955E1,6.8707886E0,9.236389E0,1.3392508E1,1.9528381E1,1.8007915E1,9.942505E0,5.5628586E0,1.2669601E1,1.0477921E1,1.9356346E1,2.15476E1,2.1987091E1,2.6062592E1,1.9764038E1,1.3807739E1,0E0,0E0,0E0,0E0,0E0,0E0,0E0,0E0,0E0,0E0,0E0,0E0,0E0,0E0,0E0,0E0,0E0,0E0,0E0,0E0,0E0,0E0,0E0,0E0,0E0,0E0,0E0,0E0,0E0,0E0,0E0,0E0],"parents":[2147483647,0,0,1,1,2,2,3,3,4,4,5,5,6,6,7,7,8,8,9,9,10,10,11,11,12,12,13,13,14,14,15,15,16,16,17,17,18,18,19,19,20,20,21,21,22,22,23,23,24,24,25,25,26,26,27,27,28,28,29,29,30,30],"right_children":[2,4,6,8,10,12,14,16,18,20,22,24,26,28,30,32,34,36,38,40,42,44,46,48,50,52,54,56,58,60,62,-1,-1,-1,-1,-1,-1,-1,-1,-1,-1,-1,-1,-1,-1,-1,-1,-1,-1,-1,-1,-1,-1,-1,-1,-1,-1,-1,-1,-1,-1,-1,-1],"split_conditions":[-3.6980427E1,-1.6155258E2,1.49E2,-8.6E2,5.9E1,-1.6713414E0,1.400872E2,5E0,2.6448073E0,3.1E2,2.55E2,1.56E2,2.8E1,-5.7E1,2.6955408E2,-2.8854053E2,1.0281789E1,-6.3912406E0,1.8461538E-2,3.4075625E0,-1.986961E0,-2.004E3,5.7590404E0,-4.12E2,7.111186E0,-4.9650493E0,5.1357433E1,-1.4381183E0,-7.0481005E0,5E0,1.492E3,-4.9228266E-2,-3.6853574E-2,-5.7938125E-2,-2.0281207E-3,-4.517188E-2,-2.7872918E-2,-1.3573793E-2,5.1823802E-2,-1.6968343E-2,-5.624307E-3,-9.130983E-3,1.3161696E-2,-4.575051E-2,-2.4824109E-2,-5.5568516E-2,-1.197486E-2,-1.5555739E-2,-3.958165E-3,-3.5785563E-2,5.686009E-3,-3.437271E-3,1.23912105E-2,-8.973029E-3,9.305819E-3,1.453065E-2,2.9522E-2,-4.489468E-3,1.3867331E-2,2.8949043E-2,4.4622924E-2,3.4256104E-2,5.3871673E-2],"split_indices":[13,13,1,1,2,35,13,3,35,1,2,2,2,2,13,13,42,35,9,31,26,1,28,1,22,26,13,44,31,3,1,0,0,0,0,0,0,0,0,0,0,0,0,0,0,0,0,0,0,0,0,0,0,0,0,0,0,0,0,0,0,0,0],"split_type":[0,0,0,0,0,0,0,0,0,0,0,0,0,0,0,0,0,0,0,0,0,0,0,0,0,0,0,0,0,0,0,0,0,0,0,0,0,0,0,0,0,0,0,0,0,0,0,0,0,0,0,0,0,0,0,0,0,0,0,0,0,0,0],"sum_hessian":[1.3096055E4,4.9450215E3,8.151033E3,1.7334764E3,3.2115452E3,3.3993818E3,4.7516514E3,1.1637186E3,5.697579E2,2.3476106E3,8.639346E2,1.2614464E3,2.1379355E3,2.9117275E3,1.8399237E3,8.8858295E2,2.7513568E2,5.059075E2,6.3850346E1,1.9656729E3,3.819378E2,7.6084436E2,1.0309022E2,1.110997E3,1.5044948E2,1.3572334E3,7.80702E2,1.2628005E3,1.6489269E3,1.2857253E3,5.5419836E2,3.1158786E2,5.7699506E2,2.6929935E2,5.836355E0,9.879072E1,4.071168E2,5.5253902E1,8.596441E0,1.4488911E3,5.167817E2,1.4627599E2,2.3566182E2,6.2960285E1,6.9788403E2,9.449554E1,8.594676E0,3.4005045E2,7.7094653E2,1.3364067E2,1.680881E1,2.3237308E2,1.1248604E3,5.540641E2,2.2663792E2,3.3656888E2,9.262317E2,2.2298442E2,1.4259425E3,1.0311316E3,2.545938E2,1.1975488E2,4.344435E2],"tree_param":{"num_deleted":"0","num_feature":"67","num_nodes":"63","size_leaf_vector":"1"}},{"base_weights":[2.5908877E-3,-2.6559055E-1,3.021258E-1,-6.276387E-1,-1.5750526E-1,1.8975122E-1,6.825919E-1,-8.520328E-1,-4.6408954E-1,-3.1089696E-1,5.8471102E-2,-9.3349695E-2,2.8259754E-1,5.256384E-1,8.261897E-1,-1.0970508E0,-7.5397503E-1,-3.5369888E-1,-7.068937E-1,-5.419557E-1,-1.6903107E-1,-2.3049307E-1,1.6003445E-1,-2.529872E-1,2.2313888E-3,6.18879E-2,3.864165E-1,4.499513E-1,8.135503E-1,7.0223945E-1,1.0201439E0,-4.033467E-3,-5.6331523E-2,-2.3609845E-2,-4.2571504E-2,-3.8905E-2,-1.5197314E-2,-3.6195066E-2,6.7745276E-2,-3.893092E-2,-2.0291299E-2,-3.1524096E-3,-2.4286442E-2,-1.5848385E-2,-6.653158E-5,1.4039311E-2,-3.129891E-3,-2.7711738E-2,-6.9061927E-3,-2.3474108E-2,2.7900722E-3,-4.8115463E-3,1.8428478E-2,1.3690062E-2,2.7923638E-2,2.7218243E-2,7.381907E-3,-1.0108079E-2,4.3453697E-2,9.558789E-3,3.7688296E-2,5.1920503E-2,2.8297905E-5],"categories":[],"categories_nodes":[],"categories_segments":[],"categories_sizes":[],"default_left":[0,0,0,0,0,0,0,0,0,0,0,0,0,0,0,0,0,0,0,0,0,0,0,0,0,0,0,0,0,0,0,0,0,0,0,0,0,0,0,0,0,0,0,0,0,0,0,0,0,0,0,0,0,0,0,0,0,0,0,0,0,0,0],"id":11,"left_children":[1,3,5,7,9,11,13,15,17,19,21,23,25,27,29,31,33,35,37,39,41,43,45,47,49,51,53,55,57,59,61,-1,-1,-1,-1,-1,-1,-1,-1,-1,-1,-1,-1,-1,-1,-1,-1,-1,-1,-1,-1,-1,-1,-1,-1,-1,-1,-1,-1,-1,-1,-1,-1],"loss_changes":[1.0500184E3,2.6974374E2,2.638534E2,5.784424E1,1.7600877E2,1.2535368E2,3.1371582E1,1.543631E1,2.4380493E1,1.0170419E2,6.475467E1,1.7993574E1,8.22204E1,1.4382614E1,1.7111847E1,5.527008E0,1.2807617E1,1.3129265E1,1.0463562E1,3.77771E1,6.456123E1,1.133618E1,4.3927544E1,1.5166483E1,1.8587559E1,5.5791508E1,4.7149506E1,1.5168373E1,8.019043E0,1.16740265E1,5.1980896E0,0E0,0E0,0E0,0E0,0E0,0E0,0E0,0E0,0E0,0E0,0E0,0E0,0E0,0E0,0E0,0E0,0E0,0E0,0E0,0E0,0E0,0E0,0E0,0E0,0E0,0E0,0E0,0E0,0E0,0E0,0E0,0E0],"parents":[2147483647,0,0,1,1,2,2,3,3,4,4,5,5,6,6,7,7,8,8,9,9,10,10,11,11,12,12,13,13,14,14,15,15,16,16,17,17,18,18,19,19,20,20,21,21,22,22,23,23,24,24,25,25,26,26,27,27,28,28,29,29,30,30],"right_children":[2,4,6,8,10,12,14,16,18,20,22,24,26,28,30,32,34,36,38,40,42,44,46,48,50,52,54,56,58,60,62,-1,-1,-1,-1,-1,-1,-1,-1,-1,-1,-1,-1,-1,-1,-1,-1,-1,-1,-1,-1,-1,-1,-1,-1,-1,-1,-1,-1,-1,-1,-1,-1],"split_conditions":[2.5150007E-1,-6E0,5E0,-3.8237891E0,-7E0,0E0,3.7378259E0,-1.5E1,4E0,-4.160679E0,0E0,-3.1199205E0,-4E0,5E0,1.4E1,-2.6153846E-2,-2.7E0,-2E0,9.097546E0,-5.05822E0,-1E-1,1E0,4.1E0,0E0,-7E0,2E0,4.751655E0,2.4E0,-3.14E2,0E0,2.2E1,-4.033467E-3,-5.6331523E-2,-2.3609845E-2,-4.2571504E-2,-3.8905E-2,-1.5197314E-2,-3.6195066E-2,6.7745276E-2,-3.893092E-2,-2.0291299E-2,-3.1524096E-3,-2.4286442E-2,-1.5848385E-2,-6.653158E-5,1.4039311E-2,-3.129891E-3,-2.7711738E-2,-6.9061927E-3,-2.3474108E-2,2.7900722E-3,-4.8115463E-3,1.8428478E-2,1.3690062E-2,2.7923638E-2,2.7218243E-2,7.381907E-3,-1.0108079E-2,4.3453697E-2,9.558789E-3,3.7688296E-2,5.1920503E-2,2.8297905E-5],"split_indices":[32,65,63,34,17,63,32,65,0,30,65,26,17,3,65,9,0,14,30,32,0,14,0,14,65,65,26,0,17,14,16,0,0,0,0,0,0,0,0,0,0,0,0,0,0,0,0,0,0,0,0,0,0,0,0,0,0,0,0,0,0,0,0],"split_type":[0,0,0,0,0,0,0,0,0,0,0,0,0,0,0,0,0,0,0,0,0,0,0,0,0,0,0,0,0,0,0,0,0,0,0,0,0,0,0,0,0,0,0,0,0,0,0,0,0,0,0,0,0,0,0,0,0,0,0,0,0,0,0],"sum_hessian":[1.3070314E4,6.8959307E3,6.1743843E3,1.5846329E3,5.311298E3,4.76732E3,1.4070647E3,6.669046E2,9.1772833E2,3.1057566E3,2.205541E3,1.1771008E3,3.5902188E3,6.737154E2,7.333493E2,1.88867E2,4.7803763E2,6.320209E2,2.8570746E2,1.1806699E3,1.9250867E3,5.731675E2,1.6323735E3,4.4091565E2,7.361852E2,1.1490995E3,2.4411194E3,5.3476385E2,1.3895154E2,4.4914212E2,2.8420718E2,5.4894443E0,1.8337755E2,1.23860435E2,3.541772E2,6.533853E1,5.666823E2,2.8373987E2,1.9676048E0,4.300062E2,7.506637E2,1.4430765E3,4.8201013E2,4.156817E2,1.5748576E2,1.0585522E3,5.738213E2,1.2094219E2,3.1997345E2,7.449219E1,6.61693E2,7.5820264E2,3.9089685E2,1.4765537E3,9.645657E2,4.0694284E2,1.27820984E2,7.0402594E0,1.3191129E2,4.1529427E1,4.076127E2,2.790997E2,5.1075034E0],"tree_param":{"num_deleted":"0","num_feature":"67","num_nodes":"63","size_leaf_vector":"1"}},{"base_weights":[-5.0398177E-3,-3.6853582E-1,3.5309622E-1,-7.4721986E-1,-2.3650867E-1,1.9045965E-1,6.499713E-1,-1.0408258E0,-6.513844E-1,-3.5288495E-1,-8.4196076E-2,7.6722527E-1,1.6408485E-1,5.623813E-1,1.005077E0,-9.383399E-1,-1.2430599E0,-5.1290077E-1,-7.4521947E-1,-2.754755E-1,-5.1627046E-1,-2.6300926E-2,-4.1560858E-1,5.310673E-1,9.5717704E-1,9.891052E-2,3.6029652E-1,1.1740179E-1,6.002931E-1,5.801233E-1,1.0541791E0,-4.8705056E-2,-1.4733076E-2,-1.5915346E-3,-6.339677E-2,-2.8968597E-2,-6.1927675E-3,-3.7563108E-2,4.43719E-2,-1.8410746E-2,-8.202269E-3,-2.324613E-2,-4.5484446E-2,-9.073049E-3,1.6977655E-3,-2.384985E-2,-0E0,3.7301578E-2,8.379669E-3,-1.1994511E-2,5.0991427E-2,7.3832646E-3,-1.1978451E-2,4.402514E-2,1.6702896E-2,-3.5279755E-2,1.021745E-2,2.210447E-2,3.3345368E-2,-1.2698226E-2,3.6189456E-2,5.3185176E-2,-2.522935E-2],"categories":[],"categories_nodes":[],"categories_segments":[],"categories_sizes":[],"default_left":[0,0,0,0,0,0,0,0,0,0,0,0,0,0,0,0,0,0,0,0,0,0,0,0,0,0,0,0,0,0,0,0,0,0,0,0,0,0,0,0,0,0,0,0,0,0,0,0,0,0,0,0,0,0,0,0,0,0,0,0,0,0,0],"id":12,"left_children":[1,3,5,7,9,11,13,15,17,19,21,23,25,27,29,31,33,35,37,39,41,43,45,47,49,51,53,55,57,59,61,-1,-1,-1,-1,-1,-1,-1,-1,-1,-1,-1,-1,-1,-1,-1,-1,-1,-1,-1,-1,-1,-1,-1,-1,-1,-1,-1,-1,-1,-1,-1,-1],"loss_changes":[1.7001606E3,3.2387177E2,3.174748E2,4.6627686E1,8.514719E1,6.45101E1,7.1966E1,7.7200317E0,1.6115173E1,3.4306732E1,3.991803E1,7.9223022E0,5.193067E1,3.1416992E1,9.123413E0,6.065048E0,3.9598541E0,1.3154648E1,7.741028E0,1.9035034E1,1.7323822E1,1.6604124E1,7.9107246E0,6.416418E0,7.850067E0,5.0393314E1,1.3561432E1,1.0579249E1,1.7885132E1,6.0034046E0,6.430298E0,0E0,0E0,0E0,0E0,0E0,0E0,0E0,0E0,0E0,0E0,0E0,0E0,0E0,0E0,0E0,0E0,0E0,0E0,0E0,0E0,0E0,0E0,0E0,0E0,0E0,0E0,0E0,0E0,0E0,0E0,0E0,0E0],"parents":[2147483647,0,0,1,1,2,2,3,3,4,4,5,5,6,6,7,7,8,8,9,9,10,10,11,11,12,12,13,13,14,14,15,15,16,16,17,17,18,18,19,19,20,20,21,21,22,22,23,23,24,24,25,25,26,26,27,27,28,28,29,29,30,30],"right_children":[2,4,6,8,10,12,14,16,18,20,22,24,26,28,30,32,34,36,38,40,42,44,46,48,50,52,54,56,58,60,62,-1,-1,-1,-1,-1,-1,-1,-1,-1,-1,-1,-1,-1,-1,-1,-1,-1,-1,-1,-1,-1,-1,-1,-1,-1,-1,-1,-1,-1,-1,-1,-1],"split_conditions":[-1.4787723E0,-1.6155258E2,1.5170686E2,-3.1802188E2,-3.6980427E1,-2.1E2,3.1937128E2,1.28E2,-2.63E2,5.7E1,9.1E1,2.2324867E0,9.636118E1,1.5740865E1,1.51726E2,7.212554E0,-4E0,8.139408E0,6E0,-1.1886735E0,2.55E2,-6.1423507E0,8.818094E0,1.6033955E0,-5.402656E0,3E1,-1.82E2,-9.833166E1,-1.3142866E0,-1.5384615E-2,4.5352755E0,-4.8705056E-2,-1.4733076E-2,-1.5915346E-3,-6.339677E-2,-2.8968597E-2,-6.1927675E-3,-3.7563108E-2,4.43719E-2,-1.8410746E-2,-8.202269E-3,-2.324613E-2,-4.5484446E-2,-9.073049E-3,1.6977655E-3,-2.384985E-2,-0E0,3.7301578E-2,8.379669E-3,-1.1994511E-2,5.0991427E-2,7.3832646E-3,-1.1978451E-2,4.402514E-2,1.6702896E-2,-3.5279755E-2,1.021745E-2,2.210447E-2,3.3345368E-2,-1.2698226E-2,3.6189456E-2,5.3185176E-2,-2.522935E-2],"split_indices":[5,13,5,5,13,2,5,4,17,2,2,37,13,13,13,49,15,22,62,37,2,29,24,44,56,2,17,13,43,9,54,0,0,0,0,0,0,0,0,0,0,0,0,0,0,0,0,0,0,0,0,0,0,0,0,0,0,0,0,0,0,0,0],"split_type":[0,0,0,0,0,0,0,0,0,0,0,0,0,0,0,0,0,0,0,0,0,0,0,0,0,0,0,0,0,0,0,0,0,0,0,0,0,0,0,0,0,0,0,0,0,0,0,0,0,0,0,0,0,0,0,0,0,0,0,0,0,0,0],"sum_hessian":[1.3058962E4,6.4811143E3,6.5778477E3,1.6746753E3,4.806439E3,4.2504746E3,2.3273728E3,4.1064136E2,1.2640339E3,2.7238972E3,2.0825415E3,1.8508961E2,4.0653853E3,1.8681506E3,4.5922223E2,2.7473074E2,1.3591061E2,5.1228784E2,7.517461E2,1.8495602E3,8.7433716E2,1.7735566E3,3.089849E2,8.359024E1,1.0149938E2,3.0526638E3,1.0127214E3,1.4703612E2,1.7211145E3,4.844031E1,4.1078192E2,2.598804E2,1.4850357E1,2.8388958E0,1.3307172E2,4.3710388E2,7.518395E1,7.49304E2,2.4420726E0,1.0083205E3,8.412396E2,7.745856E2,9.975156E1,4.9628207E2,1.2772745E3,2.6921933E2,3.9765564E1,5.2022152E1,3.1568089E1,4.8982916E0,9.660109E1,2.6688225E3,3.8384125E2,4.7663162E1,9.650582E2,1.3599794E1,1.3343633E2,5.1154816E2,1.2095663E3,6.9588757E0,4.1481434E1,4.085088E2,2.2731314E0],"tree_param":{"num_deleted":"0","num_feature":"67","num_nodes":"63","size_leaf_vector":"1"}},{"base_weights":[-1.4873972E-4,-4.1539264E-1,2.7963638E-1,-7.327964E-1,-2.7646706E-1,7.880533E-2,5.50601E-1,-1.018064E0,-6.4817774E-1,-1.19638234E-1,-3.3938506E-1,3.6781657E-1,3.8862273E-2,4.707452E-1,9.838094E-1,-1.3387702E0,-9.737506E-1,-5.822486E-1,-8.6712646E-1,-1.3993628E-1,8.088953E-1,-3.1716132E-1,-7.7759856E-1,7.673926E-1,2.7491975E-1,-4.4133715E-2,1.663748E-1,3.8408968E-1,5.9000033E-1,8.6897343E-1,1.1757138E0,-6.912194E-2,-2.8100451E-2,-4.948358E-2,-1.2328277E-2,-3.5377823E-2,-2.474782E-2,-4.8273556E-2,-3.0227352E-2,-9.15859E-3,1.9975388E-3,-3.955465E-2,5.0561655E-2,-2.4350824E-2,-1.3378094E-2,3.7850343E-2,-3.9966702E-2,7.5258934E-3,4.3313E-2,-5.2316554E-2,1.44539075E-2,-1.050372E-3,-2.5620708E-2,1.0085466E-2,-1.1969886E-2,-1.3584035E-2,2.0258954E-2,2.3884445E-2,3.564064E-2,5.1727362E-2,3.649544E-2,-7.603582E-3,5.944031E-2],"categories":[],"categories_nodes":[],"categories_segments":[],"categories_sizes":[],"default_left":[0,0,0,0,0,0,0,0,0,0,0,0,0,0,0,0,0,0,0,0,0,0,0,0,0,0,0,0,0,0,0,0,0,0,0,0,0,0,0,0,0,0,0,0,0,0,0,0,0,0,0,0,0,0,0,0,0,0,0,0,0,0,0],"id":13,"left_children":[1,3,5,7,9,11,13,15,17,19,21,23,25,27,29,31,33,35,37,39,41,43,45,47,49,51,53,55,57,59,61,-1,-1,-1,-1,-1,-1,-1,-1,-1,-1,-1,-1,-1,-1,-1,-1,-1,-1,-1,-1,-1,-1,-1,-1,-1,-1,-1,-1,-1,-1,-1,-1],"loss_changes":[1.516097E3,2.3144281E2,4.2417426E2,3.8096436E1,3.5998688E1,5.165085E1,1.14419556E2,4.298584E0,1.7425415E1,1.9736519E1,2.5163422E1,1.9961838E1,4.16652E1,2.8756348E1,1.0652405E1,8.639679E-1,3.4875793E0,1.0105011E1,6.8944855E0,7.9964485E0,7.6678762E0,2.0777481E1,4.486397E0,6.055565E0,8.342014E0,2.5756626E1,2.2275444E1,2.254631E1,1.5962067E1,6.9283752E0,3.5208435E0,0E0,0E0,0E0,0E0,0E0,0E0,0E0,0E0,0E0,0E0,0E0,0E0,0E0,0E0,0E0,0E0,0E0,0E0,0E0,0E0,0E0,0E0,0E0,0E0,0E0,0E0,0E0,0E0,0E0,0E0,0E0,0E0],"parents":[2147483647,0,0,1,1,2,2,3,3,4,4,5,5,6,6,7,7,8,8,9,9,10,10,11,11,12,12,13,13,14,14,15,15,16,16,17,17,18,18,19,19,20,20,21,21,22,22,23,23,24,24,25,25,26,26,27,27,28,28,29,29,30,30],"right_children":[2,4,6,8,10,12,14,16,18,20,22,24,26,28,30,32,34,36,38,40,42,44,46,48,50,52,54,56,58,60,62,-1,-1,-1,-1,-1,-1,-1,-1,-1,-1,-1,-1,-1,-1,-1,-1,-1,-1,-1,-1,-1,-1,-1,-1,-1,-1,-1,-1,-1,-1,-1,-1],"split_conditions":[-3.8664795E1,-1.9380049E2,1.0486855E2,-3.3980048E2,1.3E1,-7.4E1,3.0961932E2,-5.459359E2,1.28E2,1.5075542E1,2.55E2,-2.81E2,2.4466784E0,1.8699667E2,9.6E1,-5.1193686E0,1.0596681E1,-7.6190476E0,-2.2454712E2,4.596971E0,-5.6753626E0,-8.394201E0,-8E0,-1.099031E1,-2.3950216E1,1.56E2,7E1,-1.1382381E1,3.6052191E0,-7.9E1,-1.3333334E-1,-6.912194E-2,-2.8100451E-2,-4.948358E-2,-1.2328277E-2,-3.5377823E-2,-2.474782E-2,-4.8273556E-2,-3.0227352E-2,-9.15859E-3,1.9975388E-3,-3.955465E-2,5.0561655E-2,-2.4350824E-2,-1.3378094E-2,3.7850343E-2,-3.9966702E-2,7.5258934E-3,4.3313E-2,-5.2316554E-2,1.44539075E-2,-1.050372E-3,-2.5620708E-2,1.0085466E-2,-1.1969886E-2,-1.3584035E-2,2.0258954E-2,2.3884445E-2,3.564064E-2,5.1727362E-2,3.649544E-2,-7.603582E-3,5.944031E-2],"split_indices":[5,5,5,5,2,2,5,5,4,38,2,2,31,5,4,37,49,52,5,31,40,36,63,5,36,2,2,31,38,2,7,0,0,0,0,0,0,0,0,0,0,0,0,0,0,0,0,0,0,0,0,0,0,0,0,0,0,0,0,0,0,0,0],"split_type":[0,0,0,0,0,0,0,0,0,0,0,0,0,0,0,0,0,0,0,0,0,0,0,0,0,0,0,0,0,0,0,0,0,0,0,0,0,0,0,0,0,0,0,0,0,0,0,0,0,0,0,0,0,0,0,0,0,0,0,0,0,0,0],"sum_hessian":[1.3048541E4,5.252759E3,7.7957817E3,1.598288E3,3.654471E3,4.4779043E3,3.3178774E3,3.6410696E2,1.234181E3,1.0472203E3,2.6072505E3,5.4292426E2,3.9349802E3,2.8025427E3,5.1533466E2,4.215556E1,3.2195142E2,9.503124E2,2.8386862E2,1.0253384E3,2.1881887E1,2.4824448E3,1.2480562E2,1.0152579E2,4.4139844E2,2.3832812E3,1.5516991E3,1.624827E3,1.1777156E3,3.244615E2,1.9087317E2,3.9420757E1,2.7348018E0,3.147424E2,7.208988E0,3.8826318E2,5.620492E2,2.0526929E2,7.859933E1,8.2709454E2,1.9824385E2,2.2377503E0,1.9644136E1,5.596107E2,1.9228342E3,1.4425328E0,1.2336309E2,1.4337969E1,8.718782E1,4.2184906E0,4.3717996E2,2.271822E3,1.11459145E2,1.4278596E3,1.23839554E2,5.0293003E1,1.574534E3,6.168593E2,5.608563E2,1.4631572E2,1.7814578E2,1.737286E0,1.8913588E2],"tree_param":{"num_deleted":"0","num_feature":"67","num_nodes":"63","size_leaf_vector":"1"}},{"base_weights":[8.6896186E-4,-3.2626787E-1,3.4749705E-1,-5.7020897E-1,-1.3768321E-1,1.9812399E-1,6.090162E-1,-8.0982214E-1,-4.4561672E-1,-8.588104E-2,-4.2961553E-1,7.978239E-2,3.0988908E-1,5.2316374E-1,9.524289E-1,-7.1395576E-1,-1.0955043E0,-7.3669505E-1,-3.957763E-1,-1.2533508E-1,1.4043348E-1,-4.599738E-1,4.2244783E-1,6.8860847E-1,4.907889E-2,6.970177E-1,2.796361E-1,-8.531575E-2,5.576767E-1,7.8102425E-2,9.7464377E-1,-4.4080433E-2,-3.0198932E-2,-5.5891402E-2,2.1395031E-2,-3.4547754E-2,-6.2694184E-2,-9.823125E-3,-2.2350995E-2,-8.352214E-3,5.2646417E-3,-5.770278E-2,7.914056E-3,-1.8572079E-2,-3.6181185E-2,-4.146803E-2,4.4538315E-2,-4.0266257E-2,3.736387E-2,-4.5544826E-3,6.1199567E-3,1.8677449E-2,4.3215346E-2,1.4579837E-2,-3.2660857E-2,1.225469E-2,-2.0681834E-2,2.52301E-2,3.779775E-2,3.4970235E-2,-7.594613E-2,4.3527473E-2,5.4664947E-2],"categories":[],"categories_nodes":[],"categories_segments":[],"categories_sizes":[],"default_left":[0,0,0,0,0,0,0,0,0,0,0,0,0,0,0,0,0,0,0,0,0,0,0,0,0,0,0,0,0,0,0,0,0,0,0,0,0,0,0,0,0,0,0,0,0,0,0,0,0,0,0,0,0,0,0,0,0,0,0,0,0,0,0],"id":14,"left_children":[1,3,5,7,9,11,13,15,17,19,21,23,25,27,29,31,33,35,37,39,41,43,45,47,49,51,53,55,57,59,61,-1,-1,-1,-1,-1,-1,-1,-1,-1,-1,-1,-1,-1,-1,-1,-1,-1,-1,-1,-1,-1,-1,-1,-1,-1,-1,-1,-1,-1,-1,-1,-1],"loss_changes":[1.4752258E3,3.077843E2,2.4661719E2,8.680017E1,5.702735E1,5.313762E1,6.729224E1,2.6740051E1,2.760965E1,2.864728E1,1.4808533E1,3.6442055E1,2.4019714E1,3.8670776E1,8.758789E0,1.3383942E1,8.788666E0,5.995224E0,1.6657562E1,2.6294838E1,1.0989613E1,1.2579308E1,1.19295025E1,8.501732E0,1.913673E1,7.793167E0,2.146782E1,1.0800186E1,1.7990112E1,1.2367736E1,4.8465576E0,0E0,0E0,0E0,0E0,0E0,0E0,0E0,0E0,0E0,0E0,0E0,0E0,0E0,0E0,0E0,0E0,0E0,0E0,0E0,0E0,0E0,0E0,0E0,0E0,0E0,0E0,0E0,0E0,0E0,0E0,0E0,0E0],"parents":[2147483647,0,0,1,1,2,2,3,3,4,4,5,5,6,6,7,7,8,8,9,9,10,10,11,11,12,12,13,13,14,14,15,15,16,16,17,17,18,18,19,19,20,20,21,21,22,22,23,23,24,24,25,25,26,26,27,27,28,28,29,29,30,30],"right_children":[2,4,6,8,10,12,14,16,18,20,22,24,26,28,30,32,34,36,38,40,42,44,46,48,50,52,54,56,58,60,62,-1,-1,-1,-1,-1,-1,-1,-1,-1,-1,-1,-1,-1,-1,-1,-1,-1,-1,-1,-1,-1,-1,-1,-1,-1,-1,-1,-1,-1,-1,-1,-1],"split_conditions":[5.95235E0,-9.402463E1,1.5170686E2,-2.2871042E2,9.3E1,4.5384476E1,3.1937128E2,5E0,-5.6145825E0,4.960626E0,2.4615385E-2,-2.1E2,-1.33E2,-1.0082779E0,3.5686974E1,-2.8854053E2,6.896105E0,2.55E2,-3.44E2,3.6970135E1,-2.535534E1,2.55E2,-3.1939273E0,-1.7215397E1,-2.1351418E0,-1.1066172E-2,2.33E2,8E0,5E0,1.91E2,3.905E3,-4.4080433E-2,-3.0198932E-2,-5.5891402E-2,2.1395031E-2,-3.4547754E-2,-6.2694184E-2,-9.823125E-3,-2.2350995E-2,-8.352214E-3,5.2646417E-3,-5.770278E-2,7.914056E-3,-1.8572079E-2,-3.6181185E-2,-4.146803E-2,4.4538315E-2,-4.0266257E-2,3.736387E-2,-4.5544826E-3,6.1199567E-3,1.8677449E-2,4.3215346E-2,1.4579837E-2,-3.2660857E-2,1.225469E-2,-2.0681834E-2,2.52301E-2,3.779775E-2,3.4970235E-2,-7.594613E-2,4.3527473E-2,5.4664947E-2],"split_indices":[5,13,5,5,2,13,5,3,37,33,9,2,2,13,13,13,28,2,17,13,47,2,43,36,31,26,2,60,3,17,1,0,0,0,0,0,0,0,0,0,0,0,0,0,0,0,0,0,0,0,0,0,0,0,0,0,0,0,0,0,0,0,0],"split_type":[0,0,0,0,0,0,0,0,0,0,0,0,0,0,0,0,0,0,0,0,0,0,0,0,0,0,0,0,0,0,0,0,0,0,0,0,0,0,0,0,0,0,0,0,0,0,0,0,0,0,0,0,0,0,0,0,0,0,0,0,0,0,0],"sum_hessian":[1.3008622E4,6.69234E3,6.3162817E3,2.917241E3,3.7750989E3,4.0209048E3,2.295377E3,9.967535E2,1.9204874E3,3.2070168E3,5.6808215E2,1.9538436E3,2.067061E3,1.8375468E3,4.5783017E2,7.478853E2,2.4886821E2,2.7946387E2,1.6410236E3,2.731493E3,4.7552383E2,5.4887366E2,1.9208448E1,9.313234E1,1.8607113E3,1.4878789E2,1.9182733E3,9.8436264E1,1.7391106E3,1.1511785E1,4.463184E2,2.9450876E2,4.5337656E2,2.454699E2,3.398314E0,2.580071E2,2.1456741E1,3.3651306E2,1.3045105E3,2.313641E3,4.1785184E2,5.9579816E0,4.6956586E2,4.120823E2,1.3679137E2,5.0665736E0,1.4141875E1,3.2143736E0,8.991797E1,6.3852966E2,1.2221816E3,5.1473473E1,9.7314415E1,1.8944346E3,2.3838692E1,4.8973442E1,4.946282E1,1.3736832E3,3.6542728E2,8.534997E0,2.976787E0,2.4041617E2,2.059022E2],"tree_param":{"num_deleted":"0","num_feature":"67","num_nodes":"63","size_leaf_vector":"1"}},{"base_weights":[8.380786E-3,-3.7762627E-1,2.6488045E-1,-6.7197114E-1,-2.5022632E-1,8.1812054E-2,5.1501906E-1,-9.034738E-1,-5.6613135E-1,-3.3298647E-1,-1.366262E-1,5.429648E-2,3.7597525E-1,4.202589E-1,8.4133095E-1,-1.0282031E0,-7.7704793E-1,-5.950361E-1,-1.8358351E-1,-5.1761854E-1,-2.88243E-1,-4.4976917E-1,-7.249088E-2,-7.435763E-2,1.1765967E-1,2.552526E-1,6.588856E-1,2.1647298E-1,4.7210023E-1,7.416455E-1,1.0255224E0,-4.301899E-2,-5.5864055E-2,-4.0234882E-2,2.4290187E-2,-5.0018616E-2,-2.8652197E-2,-3.0624961E-2,1.8989521E-3,2.2260604E-2,-2.6959062E-2,-1.1774142E-3,-1.5952153E-2,-2.6875054E-2,-3.1202852E-3,-5.782058E-3,9.686786E-3,-2.5715603E-2,-2.253994E-3,1.0094373E-3,9.484197E-3,1.5114667E-2,-1.2667552E-2,8.117869E-3,4.2091466E-2,6.1857887E-3,2.9764453E-2,1.3021636E-2,2.5780339E-2,3.751026E-2,-8.4909916E-2,-1.0762688E-2,5.2293893E-2],"categories":[],"categories_nodes":[],"categories_segments":[],"categories_sizes":[],"default_left":[0,0,0,0,0,0,0,0,0,0,0,0,0,0,0,0,0,0,0,0,0,0,0,0,0,0,0,0,0,0,0,0,0,0,0,0,0,0,0,0,0,0,0,0,0,0,0,0,0,0,0,0,0,0,0,0,0,0,0,0,0,0,0],"id":15,"left_children":[1,3,5,7,9,11,13,15,17,19,21,23,25,27,29,31,33,35,37,39,41,43,45,47,49,51,53,55,57,59,61,-1,-1,-1,-1,-1,-1,-1,-1,-1,-1,-1,-1,-1,-1,-1,-1,-1,-1,-1,-1,-1,-1,-1,-1,-1,-1,-1,-1,-1,-1,-1,-1],"loss_changes":[1.2729769E3,1.9229431E2,3.5364124E2,3.757367E1,3.3617935E1,3.6054527E1,1.0062268E2,7.0702515E0,1.16467285E1,1.696283E1,3.0289137E1,3.327126E1,1.2843487E1,2.6615143E1,1.2916443E1,2.9432983E0,8.72554E0,8.380798E0,7.2726784E0,8.499046E0,1.3572678E1,8.643501E0,1.4425953E1,1.7273212E1,1.9174637E1,6.4609165E0,1.0136288E1,1.7970821E1,1.8426117E1,1.0530701E1,6.661804E0,0E0,0E0,0E0,0E0,0E0,0E0,0E0,0E0,0E0,0E0,0E0,0E0,0E0,0E0,0E0,0E0,0E0,0E0,0E0,0E0,0E0,0E0,0E0,0E0,0E0,0E0,0E0,0E0,0E0,0E0,0E0,0E0],"parents":[2147483647,0,0,1,1,2,2,3,3,4,4,5,5,6,6,7,7,8,8,9,9,10,10,11,11,12,12,13,13,14,14,15,15,16,16,17,17,18,18,19,19,20,20,21,21,22,22,23,23,24,24,25,25,26,26,27,27,28,28,29,29,30,30],"right_children":[2,4,6,8,10,12,14,16,18,20,22,24,26,28,30,32,34,36,38,40,42,44,46,48,50,52,54,56,58,60,62,-1,-1,-1,-1,-1,-1,-1,-1,-1,-1,-1,-1,-1,-1,-1,-1,-1,-1,-1,-1,-1,-1,-1,-1,-1,-1,-1,-1,-1,-1,-1,-1],"split_conditions":[-3.8664795E1,-1.9380049E2,1.0486855E2,-3.0833258E2,-9.086397E1,8.56982E0,2.7157245E2,-4.642094E0,8.889679E0,-4.6861844E0,-9.575332E0,-3.0788333E0,8.978157E0,-3.129164E0,6.9752855E0,-1.654491E-1,1.449506E1,-4.4E1,8.490297E-17,-5.387503E0,-2.7978096E0,-2.0885375E0,5.5951085E0,-1.7842323E1,2.8E1,7.272727E-2,1.3469596E0,6.6975255E0,2.5E2,1.3E1,2.3369195E0,-4.301899E-2,-5.5864055E-2,-4.0234882E-2,2.4290187E-2,-5.0018616E-2,-2.8652197E-2,-3.0624961E-2,1.8989521E-3,2.2260604E-2,-2.6959062E-2,-1.1774142E-3,-1.5952153E-2,-2.6875054E-2,-3.1202852E-3,-5.782058E-3,9.686786E-3,-2.5715603E-2,-2.253994E-3,1.0094373E-3,9.484197E-3,1.5114667E-2,-1.2667552E-2,8.117869E-3,4.2091466E-2,6.1857887E-3,2.9764453E-2,1.3021636E-2,2.5780339E-2,3.751026E-2,-8.4909916E-2,-1.0762688E-2,5.2293893E-2],"split_indices":[5,5,5,5,5,33,5,29,29,32,29,31,24,43,35,54,22,62,12,57,59,27,33,31,1,7,5,33,1,14,32,0,0,0,0,0,0,0,0,0,0,0,0,0,0,0,0,0,0,0,0,0,0,0,0,0,0,0,0,0,0,0,0],"split_type":[0,0,0,0,0,0,0,0,0,0,0,0,0,0,0,0,0,0,0,0,0,0,0,0,0,0,0,0,0,0,0,0,0,0,0,0,0,0,0,0,0,0,0,0,0,0,0,0,0,0,0,0,0,0,0,0,0,0,0,0,0,0,0],"sum_hessian":[1.2856073E4,5.1321143E3,7.7239585E3,1.5494175E3,3.582697E3,4.4605146E3,3.2634443E3,4.8464478E2,1.0647727E3,2.0716262E3,1.5110707E3,4.079826E3,3.8068845E2,2.5301467E3,7.3329755E2,2.4176588E2,2.4287888E2,9.894706E2,7.5302055E1,4.0263797E2,1.6689883E3,2.5609796E2,1.2549727E3,1.3457397E3,2.7340862E3,2.677427E2,1.1294576E2,5.140309E2,2.0161158E3,4.7777762E2,2.5551991E2,8.6067055E1,1.5569884E2,2.3793005E2,4.948822E0,4.9543526E1,9.3992706E2,2.550223E1,4.9799824E1,8.502825E0,3.9413516E2,1.7439258E2,1.4945957E3,2.0843799E2,4.7659977E1,1.0805022E3,1.7447049E2,8.323751E1,1.2625022E3,1.1626682E3,1.5714181E3,2.4544128E2,2.2301414E1,3.0811234E1,8.213453E1,4.1366724E2,1.0036361E2,3.4473035E2,1.6713855E3,4.764932E2,1.2844357E0,3.9676888E0,2.5155222E2],"tree_param":{"num_deleted":"0","num_feature":"67","num_nodes":"63","size_leaf_vector":"1"}},{"base_weights":[1.2019099E-3,3.0238497E-1,-2.7172077E-1,1.6816883E-1,5.1348704E-1,-5.175121E-1,-1.2031611E-1,4.205671E-2,2.6184636E-1,4.297311E-1,7.89277E-1,-7.4290586E-1,-4.3425483E-1,-2.4487744E-1,-2.6825871E-3,-8.663388E-2,1.2374886E-1,8.4193446E-2,3.110276E-1,5.6143945E-1,2.9458535E-1,6.103683E-1,9.33995E-1,-9.139841E-1,-5.875835E-1,-2.637136E-1,-5.5868006E-1,-2.0988433E-1,-5.7866126E-1,1.5017048E-2,-5.2636683E-1,8.78905E-3,-9.026855E-3,-9.922738E-3,8.217825E-3,6.1950223E-3,-1.6951771E-2,1.6704768E-2,-4.7099288E-3,3.0689111E-2,7.4104974E-3,5.27761E-2,1.3206357E-2,1.9404104E-2,4.1481744E-2,4.7959685E-2,7.923315E-3,-4.6655845E-2,2.331429E-3,-2.334976E-2,-4.4243287E-2,-2.0162279E-2,-6.680967E-3,-2.445869E-2,-3.914739E-2,-2.8010549E-3,-1.3365432E-2,-3.141258E-2,3.2194417E-2,1.5139312E-3,-2.7135221E-2,-3.2057356E-2,4.360009E-2],"categories":[],"categories_nodes":[],"categories_segments":[],"categories_sizes":[],"default_left":[0,0,0,0,0,0,0,0,0,0,0,0,0,0,0,0,0,0,0,0,0,0,0,0,0,0,0,0,0,0,0,0,0,0,0,0,0,0,0,0,0,0,0,0,0,0,0,0,0,0,0,0,0,0,0,0,0,0,0,0,0,0,0],"id":16,"left_children":[1,3,5,7,9,11,13,15,17,19,21,23,25,27,29,31,33,35,37,39,41,43,45,47,49,51,53,55,57,59,61,-1,-1,-1,-1,-1,-1,-1,-1,-1,-1,-1,-1,-1,-1,-1,-1,-1,-1,-1,-1,-1,-1,-1,-1,-1,-1,-1,-1,-1,-1,-1,-1],"loss_changes":[1.0522817E3,1.7232062E2,2.4982095E2,4.3929054E1,5.43349E1,4.7751526E1,6.088068E1,1.669526E1,1.8599289E1,3.2144714E1,1.380127E1,1.7899841E1,3.953778E1,2.3436325E1,1.9878698E1,1.5198779E1,1.2724767E1,7.796727E0,1.5662415E1,1.9743835E1,2.0527748E1,1.1790497E1,5.729889E0,6.117584E0,1.2672646E1,1.42662735E1,1.6527954E1,1.6111313E1,1.1778877E1,1.7568344E1,1.1511021E1,0E0,0E0,0E0,0E0,0E0,0E0,0E0,0E0,0E0,0E0,0E0,0E0,0E0,0E0,0E0,0E0,0E0,0E0,0E0,0E0,0E0,0E0,0E0,0E0,0E0,0E0,0E0,0E0,0E0,0E0,0E0,0E0],"parents":[2147483647,0,0,1,1,2,2,3,3,4,4,5,5,6,6,7,7,8,8,9,9,10,10,11,11,12,12,13,13,14,14,15,15,16,16,17,17,18,18,19,19,20,20,21,21,22,22,23,23,24,24,25,25,26,26,27,27,28,28,29,29,30,30],"right_children":[2,4,6,8,10,12,14,16,18,20,22,24,26,28,30,32,34,36,38,40,42,44,46,48,50,52,54,56,58,60,62,-1,-1,-1,-1,-1,-1,-1,-1,-1,-1,-1,-1,-1,-1,-1,-1,-1,-1,-1,-1,-1,-1,-1,-1,-1,-1,-1,-1,-1,-1,-1,-1],"split_conditions":[-3E0,7.59E2,-7.1E2,6.929628E-2,5.9629865E0,-2.284E3,-1.0824718E0,-1.0561115E0,-2.8216336E0,-2E-1,1.65E3,-4.2806807E0,5.1E1,1.56E2,9.5E0,-3.1E0,-1.4129901E1,6.9E0,8.8E0,9.5402385E-4,-2.81E2,5.313334E0,1.09E1,8.833597E0,1.28E2,-2.5876317E0,1.28E2,-3.2E0,2.74E2,2.33E2,6.962785E-3,8.78905E-3,-9.026855E-3,-9.922738E-3,8.217825E-3,6.1950223E-3,-1.6951771E-2,1.6704768E-2,-4.7099288E-3,3.0689111E-2,7.4104974E-3,5.27761E-2,1.3206357E-2,1.9404104E-2,4.1481744E-2,4.7959685E-2,7.923315E-3,-4.6655845E-2,2.331429E-3,-2.334976E-2,-4.4243287E-2,-2.0162279E-2,-6.680967E-3,-2.445869E-2,-3.914739E-2,-2.8010549E-3,-1.3365432E-2,-3.141258E-2,3.2194417E-2,1.5139312E-3,-2.7135221E-2,-3.2057356E-2,4.360009E-2],"split_indices":[2,1,1,33,37,1,35,39,26,0,1,35,2,2,0,0,36,0,0,8,2,25,0,42,4,26,4,0,17,2,11,0,0,0,0,0,0,0,0,0,0,0,0,0,0,0,0,0,0,0,0,0,0,0,0,0,0,0,0,0,0,0,0],"split_type":[0,0,0,0,0,0,0,0,0,0,0,0,0,0,0,0,0,0,0,0,0,0,0,0,0,0,0,0,0,0,0,0,0,0,0,0,0,0,0,0,0,0,0,0,0,0,0,0,0,0,0,0,0,0,0,0,0,0,0,0,0,0,0],"sum_hessian":[1.2800491E4,6.085342E3,6.71515E3,3.7209675E3,2.3643745E3,2.5589934E3,4.1561562E3,1.586694E3,2.1342734E3,1.8148547E3,5.495197E2,6.888845E2,1.870109E3,2.0179607E3,2.1381956E3,6.1563025E2,9.710637E2,4.6347916E2,1.6707944E3,9.1794257E2,8.969121E2,2.4720744E2,3.023123E2,3.26347E2,3.6253754E2,7.898622E2,1.0802468E3,1.8274855E3,1.9047525E2,2.068576E3,6.961964E1,1.6184619E2,4.5378406E2,1.0819309E2,8.628706E2,4.242649E2,3.9214287E1,1.5811226E3,8.967185E1,8.1431116E2,1.0363144E2,3.374523E1,8.631669E2,1.2367264E2,1.23534805E2,2.9255902E2,9.753261E0,3.2009006E2,6.256919E0,2.590709E2,1.0346662E2,3.8022992E2,4.0963223E2,8.2621747E2,2.5402937E2,4.974206E2,1.3300648E3,1.8336238E2,7.1128764E0,2.0141136E3,5.4462357E1,6.465492E1,4.9647145E0],"tree_param":{"num_deleted":"0","num_feature":"67","num_nodes":"63","size_leaf_vector":"1"}},{"base_weights":[2.8969555E-3,-3.784881E-1,2.2560151E-1,-5.737238E-1,-2.0530789E-1,6.804244E-2,4.780362E-1,-8.436713E-1,-5.0146234E-1,3.4785733E-2,-2.934446E-1,-2.0574111E-2,2.0524614E-1,3.9525282E-1,8.2041484E-1,-6.744688E-1,-9.665568E-1,-4.479993E-1,-7.297124E-1,-2.1918431E-1,1.49716E-1,-3.1791025E-1,1.8520062E-1,6.2322702E-2,-1.5611054E-1,3.2666546E-1,8.986003E-2,4.6068135E-1,2.2011437E-1,7.3321694E-1,1.051574E0,-5.0783932E-2,-2.7268711E-2,-4.8924353E-2,4.7680043E-2,-2.6997242E-2,-1.5909923E-2,-5.0045587E-2,-2.6172305E-2,-4.1678116E-2,-5.0542667E-3,2.5259659E-2,3.6138135E-3,-1.976525E-2,-1.0503592E-2,7.082159E-2,5.758662E-3,-9.758614E-3,6.6448324E-3,-1.521311E-2,-2.6044713E-3,1.550089E-2,6.1201304E-2,-2.3952318E-2,5.765589E-3,1.48355765E-2,2.6557242E-2,-6.47913E-4,1.8544553E-2,8.155624E-3,3.873394E-2,-3.9820373E-2,5.3351533E-2],"categories":[],"categories_nodes":[],"categories_segments":[],"categories_sizes":[],"default_left":[0,0,0,0,0,0,0,0,0,0,0,0,0,0,0,0,0,0,0,0,0,0,0,0,0,0,0,0,0,0,0,0,0,0,0,0,0,0,0,0,0,0,0,0,0,0,0,0,0,0,0,0,0,0,0,0,0,0,0,0,0,0,0],"id":17,"left_children":[1,3,5,7,9,11,13,15,17,19,21,23,25,27,29,31,33,35,37,39,41,43,45,47,49,51,53,55,57,59,61,-1,-1,-1,-1,-1,-1,-1,-1,-1,-1,-1,-1,-1,-1,-1,-1,-1,-1,-1,-1,-1,-1,-1,-1,-1,-1,-1,-1,-1,-1,-1,-1],"loss_changes":[1.0898794E3,1.59805E2,3.2215106E2,4.3019287E1,5.3100426E1,6.067845E1,8.794977E1,9.249298E0,2.1137146E1,1.9669933E1,2.152916E1,3.407113E1,2.7378868E1,2.8621552E1,1.1639587E1,8.335289E0,6.6505737E0,1.6820038E1,1.8154388E1,1.5085407E1,1.2704791E1,1.4470093E1,7.468354E0,3.418408E1,1.769363E1,1.3902115E1,1.4545908E1,2.0925201E1,2.4058208E1,1.0280823E1,5.1467896E0,0E0,0E0,0E0,0E0,0E0,0E0,0E0,0E0,0E0,0E0,0E0,0E0,0E0,0E0,0E0,0E0,0E0,0E0,0E0,0E0,0E0,0E0,0E0,0E0,0E0,0E0,0E0,0E0,0E0,0E0,0E0,0E0],"parents":[2147483647,0,0,1,1,2,2,3,3,4,4,5,5,6,6,7,7,8,8,9,9,10,10,11,11,12,12,13,13,14,14,15,15,16,16,17,17,18,18,19,19,20,20,21,21,22,22,23,23,24,24,25,25,26,26,27,27,28,28,29,29,30,30],"right_children":[2,4,6,8,10,12,14,16,18,20,22,24,26,28,30,32,34,36,38,40,42,44,46,48,50,52,54,56,58,60,62,-1,-1,-1,-1,-1,-1,-1,-1,-1,-1,-1,-1,-1,-1,-1,-1,-1,-1,-1,-1,-1,-1,-1,-1,-1,-1,-1,-1,-1,-1,-1,-1],"split_conditions":[-3.991714E1,-1.3841179E2,1.0486855E2,-2.7846848E2,-4E0,1.11E2,2.8620938E2,-1.8E0,5E0,-4.3823247E0,1.1693724E1,2.2E0,1E-1,3.8E0,4.099412E2,-5.319E3,4.04E2,-2.5253153E0,-2.2871042E2,-1.2589388E1,-2.1005046E0,-7.55913E1,-1.173853E1,-7.528216E0,-4.196976E-1,9.579722E0,-1.0157986E1,8.445975E1,4.689864E-1,-7.9523253E0,8.943207E0,-5.0783932E-2,-2.7268711E-2,-4.8924353E-2,4.7680043E-2,-2.6997242E-2,-1.5909923E-2,-5.0045587E-2,-2.6172305E-2,-4.1678116E-2,-5.0542667E-3,2.5259659E-2,3.6138135E-3,-1.976525E-2,-1.0503592E-2,7.082159E-2,5.758662E-3,-9.758614E-3,6.6448324E-3,-1.521311E-2,-2.6044713E-3,1.550089E-2,6.1201304E-2,-2.3952318E-2,5.765589E-3,1.48355765E-2,2.6557242E-2,-6.47913E-4,1.8544553E-2,8.155624E-3,3.873394E-2,-3.9820373E-2,5.3351533E-2],"split_indices":[13,5,5,13,0,1,5,0,3,38,38,0,0,0,5,1,1,35,5,29,54,13,19,22,53,37,43,13,29,29,13,0,0,0,0,0,0,0,0,0,0,0,0,0,0,0,0,0,0,0,0,0,0,0,0,0,0,0,0,0,0,0,0],"split_type":[0,0,0,0,0,0,0,0,0,0,0,0,0,0,0,0,0,0,0,0,0,0,0,0,0,0,0,0,0,0,0,0,0,0,0,0,0,0,0,0,0,0,0,0,0,0,0,0,0,0,0,0,0,0,0,0,0,0,0,0,0,0,0],"sum_hessian":[1.283092E4,4.729971E3,8.1009487E3,2.222589E3,2.507382E3,4.988419E3,3.1125298E3,4.6790662E2,1.7546826E3,6.7306116E2,1.8343208E3,3.0306753E3,1.9577439E3,2.507591E3,6.049386E2,1.9856209E2,2.693445E2,1.4232373E3,3.3144528E2,2.0927869E2,4.637825E2,1.7454785E3,8.8842285E1,1.8802244E3,1.1504509E3,9.5306433E2,1.0046796E3,1.8245767E3,6.830146E2,4.4107483E2,1.6386375E2,5.334841E1,1.4521368E2,2.6797684E2,1.3676906E0,8.3172644E2,5.915109E2,1.4214359E2,1.893017E2,3.3117584E1,1.761611E2,8.223591E1,3.8154657E2,1.0148611E3,7.306175E2,4.186863E0,8.465542E1,4.0397775E2,1.4762466E3,4.737667E2,6.766842E2,9.364752E2,1.6589134E1,4.2472797E1,9.622068E2,5.496218E2,1.2749547E3,2.682083E2,4.1480624E2,3.0233936E1,4.1084088E2,1.0959893E0,1.6276776E2],"tree_param":{"num_deleted":"0","num_feature":"67","num_nodes":"63","size_leaf_vector":"1"}},{"base_weights":[5.100464E-3,-2.8185278E-1,2.7885857E-1,-6.1483485E-1,-1.7657433E-1,1.741001E-1,5.9911966E-1,-8.6244404E-1,-5.169915E-1,-2.7768016E-1,-4.0219832E-2,5.53737E-1,1.4199032E-1,5.062867E-1,8.5859686E-1,-9.981648E-1,-7.237026E-1,-5.3739357E-1,7.428763E-2,-3.2664916E-1,-8.106796E-2,-2.0270996E-1,2.3824744E-2,4.2087173E-1,6.922001E-1,3.1010576E-2,2.4738105E-1,5.5657485E-3,5.272552E-1,7.691153E-1,1.015203E0,-5.136181E-2,-1.7184796E-2,2.0521155E-2,-3.7885133E-2,-2.5124017E-2,-4.2876877E-2,3.3861164E-2,-1.6404709E-2,-1.5503268E-2,-4.1654684E-2,-2.1674545E-2,-3.5428983E-4,-1.7310834E-2,-2.1006947E-3,6.5455004E-3,-2.6464958E-3,2.2153946E-2,-6.3113384E-2,-3.1343665E-2,3.55801E-2,3.6255072E-3,-9.951523E-3,1.2886292E-2,-3.96269E-2,2.75578E-2,-1.3836265E-2,2.1343485E-2,3.1721495E-2,2.9866979E-2,4.799892E-2,5.288322E-2,2.1056075E-2],"categories":[],"categories_nodes":[],"categories_segments":[],"categories_sizes":[],"default_left":[0,0,0,0,0,0,0,0,0,0,0,0,0,0,0,0,0,0,0,0,0,0,0,0,0,0,0,0,0,0,0,0,0,0,0,0,0,0,0,0,0,0,0,0,0,0,0,0,0,0,0,0,0,0,0,0,0,0,0,0,0,0,0],"id":18,"left_children":[1,3,5,7,9,11,13,15,17,19,21,23,25,27,29,31,33,35,37,39,41,43,45,47,49,51,53,55,57,59,61,-1,-1,-1,-1,-1,-1,-1,-1,-1,-1,-1,-1,-1,-1,-1,-1,-1,-1,-1,-1,-1,-1,-1,-1,-1,-1,-1,-1,-1,-1,-1,-1],"loss_changes":[1.00345544E3,2.1848962E2,2.1919986E2,3.5923218E1,6.529898E1,5.99514E1,3.844928E1,7.4346313E0,1.3034607E1,2.6142212E1,2.1030018E1,6.804001E0,5.3112236E1,1.2417725E1,5.3652954E0,3.7241974E0,8.343056E0,1.1266083E1,8.912065E0,1.8046936E1,1.4128053E1,1.3127722E1,1.19137945E1,7.580185E0,5.0122604E0,2.1132542E1,2.5114029E1,7.5647883E0,1.2023285E1,8.47374E0,3.463913E0,0E0,0E0,0E0,0E0,0E0,0E0,0E0,0E0,0E0,0E0,0E0,0E0,0E0,0E0,0E0,0E0,0E0,0E0,0E0,0E0,0E0,0E0,0E0,0E0,0E0,0E0,0E0,0E0,0E0,0E0,0E0,0E0],"parents":[2147483647,0,0,1,1,2,2,3,3,4,4,5,5,6,6,7,7,8,8,9,9,10,10,11,11,12,12,13,13,14,14,15,15,16,16,17,17,18,18,19,19,20,20,21,21,22,22,23,23,24,24,25,25,26,26,27,27,28,28,29,29,30,30],"right_children":[2,4,6,8,10,12,14,16,18,20,22,24,26,28,30,32,34,36,38,40,42,44,46,48,50,52,54,56,58,60,62,-1,-1,-1,-1,-1,-1,-1,-1,-1,-1,-1,-1,-1,-1,-1,-1,-1,-1,-1,-1,-1,-1,-1,-1,-1,-1,-1,-1,-1,-1,-1,-1],"split_conditions":[-4.5344906E0,-1.9380049E2,1.8699667E2,-3.1802188E2,-4.269341E1,-1.39E2,3.1937128E2,-4.642094E0,1.2727273E-1,4.4918737E0,-6.362335E0,2.4962196E0,4.8287544E1,-9.068577E0,7.768861E0,-7.43E2,-9.559309E0,1.74E2,-1.2379076E0,2.55E2,-1.6155258E2,1.7374604E0,1.3E1,1.2719186E1,5.5554E-1,2.8E1,2.33E2,-1.4093789E0,4.4918737E0,4.21E3,8.211285E-3,-5.136181E-2,-1.7184796E-2,2.0521155E-2,-3.7885133E-2,-2.5124017E-2,-4.2876877E-2,3.3861164E-2,-1.6404709E-2,-1.5503268E-2,-4.1654684E-2,-2.1674545E-2,-3.5428983E-4,-1.7310834E-2,-2.1006947E-3,6.5455004E-3,-2.6464958E-3,2.2153946E-2,-6.3113384E-2,-3.1343665E-2,3.55801E-2,3.6255072E-3,-9.951523E-3,1.2886292E-2,-3.96269E-2,2.75578E-2,-1.3836265E-2,2.1343485E-2,3.1721495E-2,2.9866979E-2,4.799892E-2,5.288322E-2,2.1056075E-2],"split_indices":[5,5,5,5,13,2,5,29,7,31,29,34,13,13,29,1,40,2,23,2,13,23,2,42,37,2,2,57,31,1,11,0,0,0,0,0,0,0,0,0,0,0,0,0,0,0,0,0,0,0,0,0,0,0,0,0,0,0,0,0,0,0,0],"split_type":[0,0,0,0,0,0,0,0,0,0,0,0,0,0,0,0,0,0,0,0,0,0,0,0,0,0,0,0,0,0,0,0,0,0,0,0,0,0,0,0,0,0,0,0,0,0,0,0,0,0,0,0,0,0,0,0,0,0,0,0,0,0,0],"sum_hessian":[1.2772798E4,6.235923E3,6.5368745E3,1.497177E3,4.738746E3,4.9264883E3,1.6103866E3,4.2265292E2,1.074524E3,2.7203645E3,2.0183816E3,3.8331253E2,4.543176E3,1.1874238E3,4.2296283E2,2.1172235E2,2.1093057E2,1.0388918E3,3.563224E1,2.1772507E3,5.4311365E2,5.7076056E2,1.4476211E3,1.9700967E2,1.8630286E2,2.2136885E3,2.3294873E3,4.7943817E1,1.13948E3,2.7145386E2,1.5150899E2,2.0229866E2,9.423685E0,5.892721E0,2.0503784E2,9.3817633E2,1.00715515E2,1.4224707E1,2.1407536E1,2.109188E3,6.80629E1,9.357526E1,4.495384E2,3.0087238E2,2.6988815E2,6.047902E2,8.428309E2,1.9486642E2,2.143255E0,2.398911E0,1.8390395E2,1.8760286E3,3.3765982E2,2.30701E3,2.247715E1,1.6306295E1,3.163752E1,5.90144E2,5.4933594E2,1.4423338E2,1.2722047E2,1.4088116E2,1.0627818E1],"tree_param":{"num_deleted":"0","num_feature":"67","num_nodes":"63","size_leaf_vector":"1"}},{"base_weights":[-2.7818966E-3,-2.7131918E-1,2.6542252E-1,-5.3380257E-1,-1.4159085E-1,1.4225134E-1,5.0341254E-1,-7.5476784E-1,-4.332941E-1,-2.873132E-1,-9.511542E-2,2.3183785E-2,1.9809647E-1,4.209476E-1,8.069319E-1,-8.19687E-1,-5.066049E-1,-5.149442E-1,-3.375382E-1,-4.1773972E-1,-1.2961474E-1,5.2352693E-2,-1.5031654E-1,-4.530208E-2,1.5121318E-1,1.25682E-1,3.135801E-1,3.1836373E-1,5.4078734E-1,6.9211566E-1,1.0234876E0,-4.4332962E-2,-3.0797347E-2,-8.472549E-3,-3.317188E-2,-2.6807163E-2,1.1657782E-2,-1.9853888E-2,-3.8825907E-3,3.245374E-2,-2.1791764E-2,-7.958625E-3,2.6464228E-2,-3.8243656E-4,1.1279675E-2,-8.700988E-3,9.996766E-3,6.554222E-4,-1.1504931E-2,-3.1109757E-3,1.3138788E-2,9.077419E-4,1.0469188E-2,1.4081684E-2,3.367972E-2,3.4138318E-3,1.8839559E-2,3.0121535E-2,1.4700444E-2,3.5318565E-2,-4.627469E-2,-4.7778115E-2,5.1997155E-2],"categories":[],"categories_nodes":[],"categories_segments":[],"categories_sizes":[],"default_left":[0,0,0,0,0,0,0,0,0,0,0,0,0,0,0,0,0,0,0,0,0,0,0,0,0,0,0,0,0,0,0,0,0,0,0,0,0,0,0,0,0,0,0,0,0,0,0,0,0,0,0,0,0,0,0,0,0,0,0,0,0,0,0],"id":19,"left_children":[1,3,5,7,9,11,13,15,17,19,21,23,25,27,29,31,33,35,37,39,41,43,45,47,49,51,53,55,57,59,61,-1,-1,-1,-1,-1,-1,-1,-1,-1,-1,-1,-1,-1,-1,-1,-1,-1,-1,-1,-1,-1,-1,-1,-1,-1,-1,-1,-1,-1,-1,-1,-1],"loss_changes":[9.1476526E2,2.1601157E2,1.8616553E2,4.633026E1,2.872065E1,2.7824142E1,5.3936768E1,1.0215546E1,1.1118622E1,2.103228E1,2.6245262E1,1.1748616E1,2.377301E1,2.0788788E1,1.0963593E1,6.647766E0,7.130516E0,1.2430389E1,1.0252701E1,1.095549E1,9.076122E0,9.1446295E0,1.9485924E1,9.433306E0,1.1148685E1,1.5754675E1,1.2433739E1,1.339016E1,1.1766525E1,7.311157E0,5.6755676E0,0E0,0E0,0E0,0E0,0E0,0E0,0E0,0E0,0E0,0E0,0E0,0E0,0E0,0E0,0E0,0E0,0E0,0E0,0E0,0E0,0E0,0E0,0E0,0E0,0E0,0E0,0E0,0E0,0E0,0E0,0E0,0E0],"parents":[2147483647,0,0,1,1,2,2,3,3,4,4,5,5,6,6,7,7,8,8,9,9,10,10,11,11,12,12,13,13,14,14,15,15,16,16,17,17,18,18,19,19,20,20,21,21,22,22,23,23,24,24,25,25,26,26,27,27,28,28,29,29,30,30],"right_children":[2,4,6,8,10,12,14,16,18,20,22,24,26,28,30,32,34,36,38,40,42,44,46,48,50,52,54,56,58,60,62,-1,-1,-1,-1,-1,-1,-1,-1,-1,-1,-1,-1,-1,-1,-1,-1,-1,-1,-1,-1,-1,-1,-1,-1,-1,-1,-1,-1,-1,-1,-1,-1],"split_conditions":[-1.4787723E0,-1.5709338E2,1.5170686E2,-2.7814313E2,-6.5991344E0,-1.7556981E0,3.0961932E2,4.6526127E0,-3.3523808E0,-5.4563494E0,-1.5005356E0,5.1917343E0,1.3754729E0,3.6052191E0,4.099412E2,-2.2484221E0,2.3343985E0,1.4396231E1,1.3322511E1,-5.4E2,9.842035E0,-3.0857147E1,8.9058695E0,-1.1651102E-1,-7.3835144E0,-3.0415999E-2,1.5753572E1,-1.908513E0,2.7755576E-17,4.343479E0,-3.9230768E-2,-4.4332962E-2,-3.0797347E-2,-8.472549E-3,-3.317188E-2,-2.6807163E-2,1.1657782E-2,-1.9853888E-2,-3.8825907E-3,3.245374E-2,-2.1791764E-2,-7.958625E-3,2.6464228E-2,-3.8243656E-4,1.1279675E-2,-8.700988E-3,9.996766E-3,6.554222E-4,-1.1504931E-2,-3.1109757E-3,1.3138788E-2,9.077419E-4,1.0469188E-2,1.4081684E-2,3.367972E-2,3.4138318E-3,1.8839559E-2,3.0121535E-2,1.4700444E-2,3.5318565E-2,-4.627469E-2,-4.7778115E-2,5.1997155E-2],"split_indices":[5,5,5,5,38,26,5,24,26,52,59,19,19,38,5,48,20,36,52,17,26,5,43,25,26,38,24,26,12,54,9,0,0,0,0,0,0,0,0,0,0,0,0,0,0,0,0,0,0,0,0,0,0,0,0,0,0,0,0,0,0,0,0],"split_type":[0,0,0,0,0,0,0,0,0,0,0,0,0,0,0,0,0,0,0,0,0,0,0,0,0,0,0,0,0,0,0,0,0,0,0,0,0,0,0,0,0,0,0,0,0,0,0,0,0,0,0,0,0,0,0,0,0,0,0,0,0,0,0],"sum_hessian":[1.2700026E4,6.346259E3,6.353768E3,2.0983245E3,4.2479346E3,4.1876685E3,2.166099E3,6.5471075E2,1.4436138E3,1.026048E3,3.2218865E3,1.3378127E3,2.849856E3,1.704513E3,4.6158627E2,5.17721E2,1.3698976E2,7.7745355E2,6.661603E2,5.60785E2,4.6526306E2,8.7706036E2,2.344826E3,8.7128467E2,4.6652817E2,1.7527174E3,1.0971384E3,9.198101E2,7.847028E2,3.033252E2,1.582611E2,3.8800986E2,1.2971114E2,4.40247E1,9.296506E1,7.5629755E2,2.1156034E1,5.4146313E2,1.2469709E2,8.970532E0,5.5181445E2,4.4579596E2,1.9467115E1,6.5136334E2,2.25697E2,2.196702E3,1.4812424E2,6.6197186E2,2.0931279E2,1.599154E2,3.0661276E2,7.6796155E2,9.8475586E2,1.00879083E3,8.834766E1,1.7472598E2,7.450841E2,6.269657E2,1.5773708E2,3.010159E2,2.3092926E0,1.0196518E0,1.5724144E2],"tree_param":{"num_deleted":"0","num_feature":"67","num_nodes":"63","size_leaf_vector":"1"}},{"base_weights":[-2.106212E-3,-1.8956304E-1,3.5793814E-1,-4.5317462E-1,-4.4616062E-2,3.083352E-1,8.549866E-1,-7.4304324E-1,-3.566255E-1,5.683337E-2,-1.7024508E-1,1.4119E-1,3.8866192E-1,7.491473E-1,1.0264683E0,-6.5247816E-1,-9.9559045E-1,-5.9833586E-1,-3.1789926E-1,6.5451425E-1,3.342218E-2,-1.346421E-1,-5.077617E-1,1.7403609E-1,-3.7632835E-1,3.4682053E-1,5.8134353E-1,8.207796E-1,3.9465407E-1,1.0478346E0,-7.5413175E-2,-4.847195E-2,-2.944958E-2,-5.4091543E-2,-2.4216188E-2,-3.855773E-2,-2.2407917E-2,-1.339133E-2,-2.4361081E-2,3.5344355E-2,-4.08513E-2,-3.8919225E-3,6.7908205E-3,-5.6524207E-3,-2.247527E-2,-2.7708871E-2,1.2001142E-2,9.320123E-3,-4.241052E-2,-2.8378159E-2,2.0799052E-2,3.1501424E-2,1.5544022E-2,2.1908132E-2,3.7537858E-2,-4.3211542E-2,4.2005863E-2,-8.998512E-2,2.4266541E-2,5.8299913E-3,5.3473484E-2,-6.55533E-2,4.735912E-2],"categories":[],"categories_nodes":[],"categories_segments":[],"categories_sizes":[],"default_left":[0,0,0,0,0,0,0,0,0,0,0,0,0,0,0,0,0,0,0,0,0,0,0,0,0,0,0,0,0,0,0,0,0,0,0,0,0,0,0,0,0,0,0,0,0,0,0,0,0,0,0,0,0,0,0,0,0,0,0,0,0,0,0],"id":20,"left_children":[1,3,5,7,9,11,13,15,17,19,21,23,25,27,29,31,33,35,37,39,41,43,45,47,49,51,53,55,57,59,61,-1,-1,-1,-1,-1,-1,-1,-1,-1,-1,-1,-1,-1,-1,-1,-1,-1,-1,-1,-1,-1,-1,-1,-1,-1,-1,-1,-1,-1,-1,-1,-1],"loss_changes":[8.530559E2,3.1754175E2,1.0644403E2,8.227948E1,6.837957E1,5.276114E1,6.556183E0,1.6344482E1,2.0529205E1,4.144257E1,2.8704857E1,2.1747993E1,2.1231506E1,5.930954E0,3.6204987E0,1.0495056E1,8.092453E0,7.6130753E0,1.6043884E1,8.883816E0,3.255153E1,1.4666771E1,8.020882E0,1.5219116E1,1.1692212E1,2.2048615E1,1.1189224E1,6.971695E0,8.729403E0,2.746048E0,4.6907716E0,0E0,0E0,0E0,0E0,0E0,0E0,0E0,0E0,0E0,0E0,0E0,0E0,0E0,0E0,0E0,0E0,0E0,0E0,0E0,0E0,0E0,0E0,0E0,0E0,0E0,0E0,0E0,0E0,0E0,0E0,0E0,0E0],"parents":[2147483647,0,0,1,1,2,2,3,3,4,4,5,5,6,6,7,7,8,8,9,9,10,10,11,11,12,12,13,13,14,14,15,15,16,16,17,17,18,18,19,19,20,20,21,21,22,22,23,23,24,24,25,25,26,26,27,27,28,28,29,29,30,30],"right_children":[2,4,6,8,10,12,14,16,18,20,22,24,26,28,30,32,34,36,38,40,42,44,46,48,50,52,54,56,58,60,62,-1,-1,-1,-1,-1,-1,-1,-1,-1,-1,-1,-1,-1,-1,-1,-1,-1,-1,-1,-1,-1,-1,-1,-1,-1,-1,-1,-1,-1,-1,-1,-1],"split_conditions":[4.8287544E1,-9.402463E1,3.1937128E2,-2.5338618E2,1.3E1,8.087624E1,4.099412E2,5E0,-5.453396E0,-2.81E2,1.98E2,4.74E2,5E0,1.8E1,2.1608126E0,-5.319E3,5.8740134E0,-2.9496322E0,-2.4E1,4.409263E1,-6.1970335E-2,2.36E2,1.1465972E1,2.55E2,8.541709E0,-1.39E2,1.6033617E2,-1.1092437E-2,6.153274E-1,-7.3375535E0,1.2334296E0,-4.847195E-2,-2.944958E-2,-5.4091543E-2,-2.4216188E-2,-3.855773E-2,-2.2407917E-2,-1.339133E-2,-2.4361081E-2,3.5344355E-2,-4.08513E-2,-3.8919225E-3,6.7908205E-3,-5.6524207E-3,-2.247527E-2,-2.7708871E-2,1.2001142E-2,9.320123E-3,-4.241052E-2,-2.8378159E-2,2.0799052E-2,3.1501424E-2,1.5544022E-2,2.1908132E-2,3.7537858E-2,-4.3211542E-2,4.2005863E-2,-8.998512E-2,2.4266541E-2,5.8299913E-3,5.3473484E-2,-6.55533E-2,4.735912E-2],"split_indices":[13,13,5,5,2,5,5,3,32,2,2,17,3,65,58,1,47,23,17,13,29,17,19,2,36,2,13,11,32,41,19,0,0,0,0,0,0,0,0,0,0,0,0,0,0,0,0,0,0,0,0,0,0,0,0,0,0,0,0,0,0,0,0],"split_type":[0,0,0,0,0,0,0,0,0,0,0,0,0,0,0,0,0,0,0,0,0,0,0,0,0,0,0,0,0,0,0,0,0,0,0,0,0,0,0,0,0,0,0,0,0,0,0,0,0,0,0,0,0,0,0,0,0,0,0,0,0,0,0],"sum_hessian":[1.2638466E4,8.311568E3,4.3268975E3,2.9481272E3,5.3634414E3,3.9351963E3,3.9170132E2,7.3551434E2,2.2126128E3,2.9669846E3,2.3964568E3,1.278174E3,2.6570222E3,2.442293E2,1.4747203E2,5.429844E2,1.9252998E2,3.0419144E2,1.9084213E3,1.1116726E2,2.8558174E3,2.168688E3,2.2776866E2,1.2023855E3,7.578844E1,2.1845579E3,4.724645E2,2.023922E2,4.1837105E1,1.447799E2,2.692118E0,8.91562E1,4.538282E2,1.6409662E2,2.8433363E1,1.4016336E2,1.6402808E2,1.4743131E3,4.341082E2,1.0766324E2,3.504019E0,1.3682418E3,1.4875757E3,2.0304357E3,1.3825246E2,2.1470491E2,1.3063758E1,1.1885144E3,1.38710985E1,6.1268482E1,1.4519952E1,2.4476456E2,1.9397932E3,2.5734848E2,2.1511604E2,1.9898211E0,2.0040237E2,1.2424942E0,4.0594612E1,3.4647448E0,1.4131517E2,1.199475E0,1.4926429E0],"tree_param":{"num_deleted":"0","num_feature":"67","num_nodes":"63","size_leaf_vector":"1"}},{"base_weights":[-3.9668416E-4,-2.3754217E-1,2.4711555E-1,-4.8581624E-1,-1.2183994E-1,1.744347E-1,6.0767245E-1,-7.5060046E-1,-4.2200693E-1,6.4088985E-2,-1.7729895E-1,3.0875418E-1,9.204327E-2,4.8308855E-1,8.043441E-1,-6.4928985E-1,-9.7816986E-1,-2.3876745E-1,-4.7465655E-1,-2.6929724E-1,1.23884E-1,-2.8466532E-1,-1.1602251E-1,2.1171065E-1,3.9899987E-1,-1.12652E-2,1.8972221E-1,5.8939856E-1,1.5507999E-1,8.12702E-1,-6.7329615E-2,-6.0697325E-2,-2.995497E-2,-5.168898E-2,-2.4957703E-2,-1.356071E-2,2.735025E-2,-2.7569422E-2,-1.7475154E-2,-1.6789733E-2,2.765273E-2,9.67086E-4,1.3278653E-2,-1.8062687E-2,-6.3573956E-3,-9.609411E-3,-8.696988E-4,-2.2234326E-2,1.1564385E-2,9.939655E-3,2.2574348E-2,-1.4150343E-3,3.544214E-2,1.1182501E-2,-6.9277445E-3,2.4991924E-2,3.9224397E-2,-3.5420496E-2,1.4712905E-2,3.5145108E-2,4.988205E-2],"categories":[],"categories_nodes":[],"categories_segments":[],"categories_sizes":[],"default_left":[0,0,0,0,0,0,0,0,0,0,0,0,0,0,0,0,0,0,0,0,0,0,0,0,0,0,0,0,0,0,0,0,0,0,0,0,0,0,0,0,0,0,0,0,0,0,0,0,0,0,0,0,0,0,0,0,0,0,0,0,0],"id":21,"left_children":[1,3,5,7,9,11,13,15,17,19,21,23,25,27,29,31,33,35,37,39,41,43,45,47,49,51,53,55,57,59,-1,-1,-1,-1,-1,-1,-1,-1,-1,-1,-1,-1,-1,-1,-1,-1,-1,-1,-1,-1,-1,-1,-1,-1,-1,-1,-1,-1,-1,-1,-1],"loss_changes":[7.3473987E2,1.8355133E2,1.6037119E2,3.405237E1,4.4991814E1,5.6366043E1,2.4842285E1,8.5941925E0,1.5680939E1,1.9977703E1,2.204963E1,1.6865753E1,3.1917475E1,2.1859863E1,7.63501E0,7.224388E0,2.7840881E0,9.407953E0,1.2028778E1,8.399211E0,1.2563254E1,1.464576E1,1.6058125E1,1.2048191E1,1.0428497E1,1.878763E1,1.8126476E1,7.9858704E0,1.8714273E1,7.5217896E0,0E0,0E0,0E0,0E0,0E0,0E0,0E0,0E0,0E0,0E0,0E0,0E0,0E0,0E0,0E0,0E0,0E0,0E0,0E0,0E0,0E0,0E0,0E0,0E0,0E0,0E0,0E0,0E0,0E0,0E0,0E0],"parents":[2147483647,0,0,1,1,2,2,3,3,4,4,5,5,6,6,7,7,8,8,9,9,10,10,11,11,12,12,13,13,14,14,15,15,16,16,17,17,18,18,19,19,20,20,21,21,22,22,23,23,24,24,25,25,26,26,27,27,28,28,29,29],"right_children":[2,4,6,8,10,12,14,16,18,20,22,24,26,28,30,32,34,36,38,40,42,44,46,48,50,52,54,56,58,60,-1,-1,-1,-1,-1,-1,-1,-1,-1,-1,-1,-1,-1,-1,-1,-1,-1,-1,-1,-1,-1,-1,-1,-1,-1,-1,-1,-1,-1,-1,-1],"split_conditions":[4.470688E0,-1.5709338E2,2.2876135E2,-3.1802188E2,-4E0,-1.1E0,3.1937128E2,5E0,-4.4E0,-1.0941627E1,-8.505226E1,7.882585E1,8.6686386E1,3.9E0,3.9230768E-2,-5.459359E2,8.6320347E-1,1E0,1.22024864E-1,1.257197E1,-5.372314E1,8.788712E-1,1.3727323E0,-1.4084195E1,-5.7732697E0,2.1951153E1,8.8E0,8.373306E0,-3.8824928E0,9.6E1,-6.7329615E-2,-6.0697325E-2,-2.995497E-2,-5.168898E-2,-2.4957703E-2,-1.356071E-2,2.735025E-2,-2.7569422E-2,-1.7475154E-2,-1.6789733E-2,2.765273E-2,9.67086E-4,1.3278653E-2,-1.8062687E-2,-6.3573956E-3,-9.609411E-3,-8.696988E-4,-2.2234326E-2,1.1564385E-2,9.939655E-3,2.2574348E-2,-1.4150343E-3,3.544214E-2,1.1182501E-2,-6.9277445E-3,2.4991924E-2,3.9224397E-2,-3.5420496E-2,1.4712905E-2,3.5145108E-2,4.988205E-2],"split_indices":[5,5,5,5,0,0,5,3,0,36,5,5,5,0,9,5,27,10,43,47,5,31,22,26,36,24,0,31,31,4,0,0,0,0,0,0,0,0,0,0,0,0,0,0,0,0,0,0,0,0,0,0,0,0,0,0,0,0,0,0,0],"split_type":[0,0,0,0,0,0,0,0,0,0,0,0,0,0,0,0,0,0,0,0,0,0,0,0,0,0,0,0,0,0,0,0,0,0,0,0,0,0,0,0,0,0,0,0,0,0,0,0,0,0,0,0,0,0,0,0,0,0,0,0,0],"sum_hessian":[1.25166455E4,6.392404E3,6.1242417E3,2.0312595E3,4.361144E3,5.0976743E3,1.026567E3,3.9309918E2,1.6381603E3,1.0015432E3,3.359601E3,1.9371039E3,3.1605706E3,6.2983044E2,3.967366E2,2.736432E2,1.19456E2,3.6667313E2,1.2714872E3,1.5179396E2,8.4974927E2,1.2194573E3,2.1401438E3,9.347374E2,1.00236646E3,1.53574E3,1.6248307E3,4.7513293E2,1.546975E2,3.9555716E2,1.1794442E0,2.1228695E1,2.5241449E2,1.0632474E2,1.3131265E1,3.5256924E2,1.4103881E1,7.8667365E2,4.8481357E2,1.4082402E2,1.0969941E1,4.897049E2,3.6004437E2,8.19646E2,3.998113E2,1.2067473E3,9.333964E2,2.660879E1,9.0812866E2,2.0909467E2,7.932718E2,1.5008536E3,3.4886253E1,1.473053E3,1.5177765E2,3.2721243E2,1.479205E2,2.1089622E1,1.3360788E2,2.500446E2,1.4551254E2],"tree_param":{"num_deleted":"0","num_feature":"67","num_nodes":"61","size_leaf_vector":"1"}},{"base_weights":[-2.6096313E-3,-3.199029E-1,1.735691E-1,-5.372565E-1,-2.1883655E-1,4.7261503E-2,3.704161E-1,-8.8612854E-2,-5.8972263E-1,-4.714157E-2,-2.871469E-1,-4.9219985E-2,1.6971353E-1,2.9322007E-1,6.311525E-1,-4.3941423E-1,1.6785707E-1,-5.1749754E-1,-8.638086E-1,-1.7853506E-1,1.0808391E-1,-4.0672716E-1,-2.2178085E-1,2.2336772E-2,-1.750021E-1,4.058482E-1,1.0275775E-1,4.1947806E-1,1.4511953E-1,5.262997E-1,9.766494E-1,6.6042985E-3,-3.2802086E-2,-3.0947823E-2,1.6640801E-2,-4.5410354E-2,-2.4188442E-2,-5.4558843E-2,-3.7845198E-2,-5.259734E-3,-2.7130468E-2,1.8210668E-2,-0E0,-1.9304119E-2,-5.2159924E-2,-8.368379E-3,-2.0692045E-2,-1.2855534E-2,3.0829185E-3,-1.7890785E-2,-4.828761E-3,9.50583E-3,2.4212157E-2,3.8648143E-3,2.762573E-2,2.800479E-2,1.768702E-2,9.24927E-3,-1.5840204E-2,2.95705E-2,1.0751347E-2,-5.4862298E-2,4.995453E-2],"categories":[],"categories_nodes":[],"categories_segments":[],"categories_sizes":[],"default_left":[0,0,0,0,0,0,0,0,0,0,0,0,0,0,0,0,0,0,0,0,0,0,0,0,0,0,0,0,0,0,0,0,0,0,0,0,0,0,0,0,0,0,0,0,0,0,0,0,0,0,0,0,0,0,0,0,0,0,0,0,0,0,0],"id":22,"left_children":[1,3,5,7,9,11,13,15,17,19,21,23,25,27,29,31,33,35,37,39,41,43,45,47,49,51,53,55,57,59,61,-1,-1,-1,-1,-1,-1,-1,-1,-1,-1,-1,-1,-1,-1,-1,-1,-1,-1,-1,-1,-1,-1,-1,-1,-1,-1,-1,-1,-1,-1,-1,-1],"loss_changes":[7.020572E2,9.836484E1,2.0071768E2,3.3390717E1,3.5871384E1,5.8138565E1,6.3333496E1,1.3535075E1,2.4844757E1,1.7811707E1,1.70094E1,2.478263E1,3.4215073E1,4.5465347E1,2.5681427E1,7.961872E0,1.1326089E1,1.2941681E1,5.8318787E0,1.2537931E1,1.1048098E1,9.810699E0,1.4721619E1,1.9259098E1,1.4250347E1,7.980171E0,1.9274742E1,1.19596405E1,2.06815E1,1.1079544E1,8.304291E0,0E0,0E0,0E0,0E0,0E0,0E0,0E0,0E0,0E0,0E0,0E0,0E0,0E0,0E0,0E0,0E0,0E0,0E0,0E0,0E0,0E0,0E0,0E0,0E0,0E0,0E0,0E0,0E0,0E0,0E0,0E0,0E0],"parents":[2147483647,0,0,1,1,2,2,3,3,4,4,5,5,6,6,7,7,8,8,9,9,10,10,11,11,12,12,13,13,14,14,15,15,16,16,17,17,18,18,19,19,20,20,21,21,22,22,23,23,24,24,25,25,26,26,27,27,28,28,29,29,30,30],"right_children":[2,4,6,8,10,12,14,16,18,20,22,24,26,28,30,32,34,36,38,40,42,44,46,48,50,52,54,56,58,60,62,-1,-1,-1,-1,-1,-1,-1,-1,-1,-1,-1,-1,-1,-1,-1,-1,-1,-1,-1,-1,-1,-1,-1,-1,-1,-1,-1,-1,-1,-1,-1,-1],"split_conditions":[-4.269341E1,-1.7160422E2,8.445975E1,-7.5E0,-3.5E0,1.11E2,2.3497058E2,-1E0,5E0,-2.28E2,-4.9241967E0,2.2E0,-4E0,1.7E0,5E0,-1.09E1,-7.309703E0,-5.319E3,-2.9883463E2,5E0,-8E0,1.2710013E1,4.5E0,-9.718979E0,-2.387582E0,-3.1696823E0,1.0155606E1,-3.9E0,1.05E1,5.8E0,0E0,6.6042985E-3,-3.2802086E-2,-3.0947823E-2,1.6640801E-2,-4.5410354E-2,-2.4188442E-2,-5.4558843E-2,-3.7845198E-2,-5.259734E-3,-2.7130468E-2,1.8210668E-2,-0E0,-1.9304119E-2,-5.2159924E-2,-8.368379E-3,-2.0692045E-2,-1.2855534E-2,3.0829185E-3,-1.7890785E-2,-4.828761E-3,9.50583E-3,2.4212157E-2,3.8648143E-3,2.762573E-2,2.800479E-2,1.768702E-2,9.24927E-3,-1.5840204E-2,2.95705E-2,1.0751347E-2,-5.4862298E-2,4.995453E-2],"split_indices":[13,13,13,0,0,1,13,61,3,1,31,0,0,0,3,0,37,1,13,3,0,18,0,26,37,31,37,0,0,0,65,0,0,0,0,0,0,0,0,0,0,0,0,0,0,0,0,0,0,0,0,0,0,0,0,0,0,0,0,0,0,0,0],"split_type":[0,0,0,0,0,0,0,0,0,0,0,0,0,0,0,0,0,0,0,0,0,0,0,0,0,0,0,0,0,0,0,0,0,0,0,0,0,0,0,0,0,0,0,0,0,0,0,0,0,0,0,0,0,0,0,0,0,0,0,0,0,0,0],"sum_hessian":[1.2557831E4,4.4834375E3,8.074393E3,1.4220422E3,3.0613953E3,4.919138E3,3.1552551E3,1.4922812E2,1.2728141E3,8.71992E2,2.189403E3,2.7510408E3,2.1680974E3,2.435596E3,7.1965906E2,6.3037807E1,8.6190315E1,1.00879315E3,2.6402094E2,4.7255673E2,3.9943527E2,7.723428E2,1.4170604E3,1.7532454E3,9.977955E2,4.780658E2,1.6900316E3,1.3138917E3,1.1217043E3,5.532941E2,1.663649E2,1.7253542E1,4.5784267E1,1.4594733E1,7.159558E1,7.889963E1,9.2989355E2,8.266574E1,1.813552E2,3.9408917E2,7.8467545E1,1.1800759E2,2.8142767E2,7.490081E2,2.3334648E1,1.1053546E3,3.1170584E2,2.1561539E2,1.53763E3,2.9863025E2,6.991652E2,1.2821759E2,3.498482E2,1.6002472E3,8.9784325E1,4.168779E2,8.970138E2,1.033063E3,8.864126E1,4.5694226E2,9.635188E1,1.4768696E0,1.6488803E2],"tree_param":{"num_deleted":"0","num_feature":"67","num_nodes":"63","size_leaf_vector":"1"}},{"base_weights":[3.13058E-4,-1.9243386E-1,2.5058967E-1,-4.6669617E-1,-1.0597638E-1,1.8130961E-1,5.5056727E-1,-7.373121E-1,-3.842346E-1,-6.5034986E-2,-3.8491932E-1,2.9038486E-1,6.8499535E-2,3.8715395E-1,6.550969E-1,-7.662451E-1,2.9475552E-1,5.83026E-1,-4.121179E-1,1.3816668E-1,-1.265682E-1,-4.1238979E-1,3.834249E-1,4.7753635E-1,2.3047346E-1,2.2462456E-1,-2.6217058E-2,1.7847241E-1,6.218207E-1,7.600996E-1,4.7511226E-1,-2.9597787E-2,-4.474682E-2,3.4672447E-2,-5.3604342E-2,-4.5702465E-2,4.0112074E-2,-2.3328967E-2,-9.91239E-3,4.376664E-3,1.9461198E-2,1.06697725E-2,-7.6097026E-3,-1.8118666E-2,-3.8065072E-2,6.638923E-2,8.558171E-4,2.6786093E-2,9.726478E-3,3.53815E-2,1.020088E-2,6.472058E-4,1.7466506E-2,-1.7016971E-2,7.534029E-4,2.5827942E-2,5.084043E-4,3.2586448E-2,-1.580551E-2,-7.759202E-2,3.851191E-2,2.716457E-2,-1.2209393E-2],"categories":[],"categories_nodes":[],"categories_segments":[],"categories_sizes":[],"default_left":[0,0,0,0,0,0,0,0,0,0,0,0,0,0,0,0,0,0,0,0,0,0,0,0,0,0,0,0,0,0,0,0,0,0,0,0,0,0,0,0,0,0,0,0,0,0,0,0,0,0,0,0,0,0,0,0,0,0,0,0,0,0,0],"id":23,"left_children":[1,3,5,7,9,11,13,15,17,19,21,23,25,27,29,31,33,35,37,39,41,43,45,47,49,51,53,55,57,59,61,-1,-1,-1,-1,-1,-1,-1,-1,-1,-1,-1,-1,-1,-1,-1,-1,-1,-1,-1,-1,-1,-1,-1,-1,-1,-1,-1,-1,-1,-1,-1,-1],"loss_changes":[6.074939E2,1.6860382E2,1.1374588E2,3.778604E1,6.1723934E1,5.4736557E1,1.7319733E1,1.2023651E1,3.5376358E1,5.9003708E1,1.4687286E1,2.5247253E1,3.2403206E1,1.9571781E1,1.1517853E1,8.259781E0,6.3833027E0,1.2416728E1,1.4698471E1,1.3874559E1,3.1566708E1,1.1415115E1,8.163125E0,8.896675E0,2.1493042E1,2.1799557E1,1.771031E1,1.2117956E1,5.43824E0,9.751877E0,1.1481766E1,0E0,0E0,0E0,0E0,0E0,0E0,0E0,0E0,0E0,0E0,0E0,0E0,0E0,0E0,0E0,0E0,0E0,0E0,0E0,0E0,0E0,0E0,0E0,0E0,0E0,0E0,0E0,0E0,0E0,0E0,0E0,0E0],"parents":[2147483647,0,0,1,1,2,2,3,3,4,4,5,5,6,6,7,7,8,8,9,9,10,10,11,11,12,12,13,13,14,14,15,15,16,16,17,17,18,18,19,19,20,20,21,21,22,22,23,23,24,24,25,25,26,26,27,27,28,28,29,29,30,30],"right_children":[2,4,6,8,10,12,14,16,18,20,22,24,26,28,30,32,34,36,38,40,42,44,46,48,50,52,54,56,58,60,62,-1,-1,-1,-1,-1,-1,-1,-1,-1,-1,-1,-1,-1,-1,-1,-1,-1,-1,-1,-1,-1,-1,-1,-1,-1,-1,-1,-1,-1,-1,-1,-1],"split_conditions":[1.802723E1,-1.5181746E2,2.0041661E2,-2.8854053E2,9.3E1,-2.3E1,2.964592E0,1.8017467E1,-1.14E1,-3.9E0,2.4615385E-2,-3.2E0,-7E-1,3.2496045E0,2.6E0,-1.9E0,8.8E1,-1.4516646E1,4.1043434E0,-3.7E1,-9.2E1,3.79E2,-4.5280685E0,1.5257261E0,-2.81E2,4.8287544E1,-9.728981E0,-9E-1,2.8547997E0,-1.579832E-2,-7E0,-2.9597787E-2,-4.474682E-2,3.4672447E-2,-5.3604342E-2,-4.5702465E-2,4.0112074E-2,-2.3328967E-2,-9.91239E-3,4.376664E-3,1.9461198E-2,1.06697725E-2,-7.6097026E-3,-1.8118666E-2,-3.8065072E-2,6.638923E-2,8.558171E-4,2.6786093E-2,9.726478E-3,3.53815E-2,1.020088E-2,6.472058E-4,1.7466506E-2,-1.7016971E-2,7.534029E-4,2.5827942E-2,5.084043E-4,3.2586448E-2,-1.580551E-2,-7.759202E-2,3.851191E-2,2.716457E-2,-1.2209393E-2],"split_indices":[13,13,13,13,2,2,37,47,0,0,9,0,0,29,0,0,2,22,29,17,2,2,22,56,2,13,29,0,37,11,2,0,0,0,0,0,0,0,0,0,0,0,0,0,0,0,0,0,0,0,0,0,0,0,0,0,0,0,0,0,0,0,0],"split_type":[0,0,0,0,0,0,0,0,0,0,0,0,0,0,0,0,0,0,0,0,0,0,0,0,0,0,0,0,0,0,0,0,0,0,0,0,0,0,0,0,0,0,0,0,0,0,0,0,0,0,0,0,0,0,0,0,0,0,0,0,0,0,0],"sum_hessian":[1.2592023E4,7.113432E3,5.4785913E3,1.7041465E3,5.4092856E3,4.4516216E3,1.0269697E3,3.967944E2,1.3073522E3,4.7178115E3,6.91474E2,2.2624255E3,2.1891963E3,4.019312E2,6.250386E2,3.8619348E2,1.06009035E1,3.6251747E1,1.2711003E3,1.0960543E3,3.6217573E3,6.679545E2,2.3519455E1,5.473758E2,1.7150496E3,8.267697E2,1.3624265E3,2.1343591E2,1.8849529E2,3.933764E2,2.3166217E2,1.655553E2,2.2063818E2,8.454351E0,2.1465516E0,4.369613E0,3.1882133E1,1.0122701E3,2.588303E2,9.129937E2,1.8306058E2,2.5333527E2,3.3684219E3,5.8535046E2,8.2604065E1,6.130185E0,1.7389269E1,4.5336523E2,9.401057E1,8.922051E1,1.6258291E3,3.070033E2,5.197664E2,1.5812387E2,1.2043026E3,7.0396355E1,1.4303957E2,1.8292157E2,5.573719E0,1.3425167E0,3.9203387E2,2.1184386E2,1.9818325E1],"tree_param":{"num_deleted":"0","num_feature":"67","num_nodes":"63","size_leaf_vector":"1"}},{"base_weights":[-3.9709522E-3,-2.7292663E-1,1.7265435E-1,-5.0470746E-1,-1.8433113E-1,9.6186355E-2,4.4445565E-1,-4.2923874E-1,-7.5481397E-1,-3.2770562E-1,-1.2113236E-1,3.5241535E-1,5.355483E-2,3.345184E-1,6.223575E-1,-5.374284E-1,-3.1321415E-1,-7.76878E-1,3.5828465E-1,-3.3360323E-1,7.8877646E-1,1.7274685E-1,-1.4797781E-1,7.000717E-1,2.7722248E-1,6.630715E-2,-5.4501265E-1,2.2070196E-1,4.674742E-1,5.624585E-1,9.2763054E-1,-3.1466972E-2,-1.4567888E-2,1.2455099E-2,-1.6916104E-2,6.9289796E-2,-3.9359387E-2,5.4074287E-2,-2.801083E-2,-1.2180479E-2,-2.0573977E-2,-5.9223212E-2,7.315301E-2,1.7380774E-3,2.8478453E-2,-6.3340313E-4,-1.0771743E-2,6.92885E-3,3.9225016E-2,5.877258E-3,1.7487584E-2,9.320641E-4,8.319523E-3,2.8060243E-2,-2.915578E-2,1.7787652E-2,2.9151696E-3,-1.51945995E-2,2.4492208E-2,8.82922E-3,2.9982343E-2,-1.7325161E-2,4.7579136E-2],"categories":[],"categories_nodes":[],"categories_segments":[],"categories_sizes":[],"default_left":[0,0,0,0,0,0,0,0,0,0,0,0,0,0,0,0,0,0,0,0,0,0,0,0,0,0,0,0,0,0,0,0,0,0,0,0,0,0,0,0,0,0,0,0,0,0,0,0,0,0,0,0,0,0,0,0,0,0,0,0,0,0,0],"id":24,"left_children":[1,3,5,7,9,11,13,15,17,19,21,23,25,27,29,31,33,35,37,39,41,43,45,47,49,51,53,55,57,59,61,-1,-1,-1,-1,-1,-1,-1,-1,-1,-1,-1,-1,-1,-1,-1,-1,-1,-1,-1,-1,-1,-1,-1,-1,-1,-1,-1,-1,-1,-1,-1,-1],"loss_changes":[5.938473E2,1.0164261E2,1.5674638E2,2.5573853E1,3.2429817E1,6.428375E1,3.219339E1,1.3057587E1,7.9551697E0,7.305168E0,1.965702E1,2.1756004E1,3.851993E1,1.5391922E1,1.1140427E1,1.2122345E1,7.252762E0,7.4116516E0,